//+------------------------------------------------------------------+
//|   XGBoost Predictor for MQL5
//+------------------------------------------------------------------+
#property strict

const double BEST_THRESHOLD = 0.410000;

// --- Liste des features attendues par le modèle ---
// 0: type
// 1: rsiV
// 2: atrV
// 3: tenkan
// 4: kijun
// 5: spanA
// 6: spanB
// 7: lagging
// 8: price
// 9: distPriceToCloud
// 10: distKijunToCloud
// 11: volume
// 12: sl
// 13: tp
// 14: slope5V
// 15: slope10V
// 16: slope20V
// 17: priceStd5V
// 18: priceStd10V
// 19: priceStd20V
// 20: zScore50V
// 21: distance_to_sl_art
// 22: volatility_regime
// 23: prix_vs_ema200
// 24: rsi_vs_ema_rsi
// 25: sl_size_in_atr

// --- Code généré par m2cgen ---
#include <math.h>
#include <string.h>
double sigmoid(double x) {
    if (x < 0.0) {
        double z = exp(x);
        return z / (1.0 + z);
    }
    return 1.0 / (1.0 + exp(-x));
}
void xgboost_score(const double &inputs[], double * output) {
    double var0;
    if (inputs[19] < 1.1199208) {
        var0 = 0.021941753;
    } else {
        if (inputs[23] < -55.599304) {
            var0 = -0.03361669;
        } else {
            if (inputs[18] < 1.59889) {
                if (inputs[2] < 1.6492857) {
                    if (inputs[10] < 0.56) {
                        var0 = 0.017465832;
                    } else {
                        var0 = -0.0060846484;
                    }
                } else {
                    if (inputs[16] < 0.06866165) {
                        var0 = -0.009097796;
                    } else {
                        var0 = -0.044371452;
                    }
                }
            } else {
                if (inputs[9] < 7.655) {
                    if (inputs[25] < 1.8018335) {
                        var0 = -0.014193796;
                    } else {
                        var0 = 0.02185901;
                    }
                } else {
                    if (inputs[25] < 2.4191177) {
                        var0 = 0.015319215;
                    } else {
                        var0 = -0.024673013;
                    }
                }
            }
        }
    }
    double var1;
    if (inputs[15] < -0.6484848) {
        var1 = 0.021258129;
    } else {
        if (inputs[18] < 2.2016084) {
            if (inputs[15] < 0.3481818) {
                if (inputs[24] < -18.488583) {
                    if (inputs[16] < -0.17421053) {
                        var1 = -0.0032280975;
                    } else {
                        var1 = 0.034755748;
                    }
                } else {
                    if (inputs[9] < 5.695) {
                        var1 = -0.006166509;
                    } else {
                        var1 = -0.038335007;
                    }
                }
            } else {
                if (inputs[1] < 72.61344) {
                    if (inputs[20] < -0.19728385) {
                        var1 = 0.016211586;
                    } else {
                        var1 = 0.03454538;
                    }
                } else {
                    var1 = -0.003541633;
                }
            }
        } else {
            var1 = -0.023407489;
        }
    }
    double var2;
    if (inputs[16] < 0.12944362) {
        if (inputs[1] < 30.82347) {
            if (inputs[1] < 27.259417) {
                if (inputs[23] < -19.12085) {
                    var2 = -0.017781746;
                } else {
                    var2 = 0.025640769;
                }
            } else {
                var2 = -0.025399793;
            }
        } else {
            if (inputs[25] < 1.8914771) {
                var2 = -0.013101291;
            } else {
                if (inputs[9] < 4.19) {
                    if (inputs[14] < 0.781) {
                        var2 = 0.015657477;
                    } else {
                        var2 = 0.045989707;
                    }
                } else {
                    if (inputs[15] < -0.2869091) {
                        var2 = 0.019077832;
                    } else {
                        var2 = -0.019320816;
                    }
                }
            }
        }
    } else {
        if (inputs[20] < 0.106602594) {
            if (inputs[2] < 1.7664286) {
                if (inputs[3] < 1814.065) {
                    var2 = -0.008648311;
                } else {
                    var2 = 0.030044323;
                }
            } else {
                var2 = -0.02030755;
            }
        } else {
            if (inputs[11] < 0.28) {
                var2 = -0.018353177;
            } else {
                var2 = -0.060235757;
            }
        }
    }
    double var3;
    if (inputs[20] < 0.106602594) {
        if (inputs[21] < -2.6912065) {
            if (inputs[20] < -0.9081138) {
                var3 = 0.010388583;
            } else {
                var3 = -0.022975765;
            }
        } else {
            if (inputs[25] < 2.3903956) {
                if (inputs[18] < 1.8450803) {
                    var3 = -0.011264907;
                } else {
                    var3 = 0.014753628;
                }
            } else {
                if (inputs[17] < 1.1192747) {
                    var3 = 0.000025936552;
                } else {
                    if (inputs[1] < 68.180214) {
                        var3 = 0.05304529;
                    } else {
                        var3 = 0.015459377;
                    }
                }
            }
        }
    } else {
        if (inputs[16] < 0.120789476) {
            if (inputs[9] < 4.47) {
                if (inputs[17] < 1.2256917) {
                    var3 = -0.0046832487;
                } else {
                    var3 = 0.028498743;
                }
            } else {
                if (inputs[4] < 1778.515) {
                    var3 = -0.044829126;
                } else {
                    if (inputs[15] < -0.4269697) {
                        var3 = 0.017226748;
                    } else {
                        var3 = -0.027328106;
                    }
                }
            }
        } else {
            if (inputs[2] < 1.9864286) {
                var3 = -0.05822996;
            } else {
                var3 = -0.005055323;
            }
        }
    }
    double var4;
    if (inputs[20] < 0.08772628) {
        if (inputs[21] < -2.872818) {
            var4 = -0.011154775;
        } else {
            if (inputs[18] < 1.5401887) {
                if (inputs[15] < 0.2969697) {
                    if (inputs[19] < 1.3315202) {
                        var4 = 0.029685233;
                    } else {
                        var4 = -0.0032048698;
                    }
                } else {
                    if (inputs[10] < 1.68) {
                        var4 = -0.021976465;
                    } else {
                        var4 = 0.0065276464;
                    }
                }
            } else {
                if (inputs[2] < 1.7892857) {
                    var4 = 0.04713492;
                } else {
                    if (inputs[20] < -0.9606296) {
                        var4 = -0.012982074;
                    } else {
                        var4 = 0.024414286;
                    }
                }
            }
        }
    } else {
        if (inputs[16] < 0.1437594) {
            if (inputs[10] < 2.1375) {
                if (inputs[20] < 0.7862127) {
                    var4 = -0.0062546255;
                } else {
                    if (inputs[21] < -1.9089215) {
                        var4 = 0.034134496;
                    } else {
                        var4 = 0.010539811;
                    }
                }
            } else {
                if (inputs[15] < -0.44751516) {
                    var4 = 0.0035982737;
                } else {
                    var4 = -0.03691385;
                }
            }
        } else {
            if (inputs[11] < 0.27) {
                var4 = -0.012804951;
            } else {
                var4 = -0.061367974;
            }
        }
    }
    double var5;
    if (inputs[23] < 26.09915) {
        if (inputs[13] < 1779.85) {
            if (inputs[20] < 0.00019193416) {
                if (inputs[17] < 1.075472) {
                    var5 = -0.020953208;
                } else {
                    if (inputs[17] < 1.4078722) {
                        var5 = 0.030012101;
                    } else {
                        var5 = 0.0062403376;
                    }
                }
            } else {
                if (inputs[19] < 1.4670558) {
                    var5 = 0.0005431217;
                } else {
                    var5 = -0.03609972;
                }
            }
        } else {
            if (inputs[16] < 0.12332331) {
                if (inputs[13] < 1808.35) {
                    var5 = 0.03756686;
                } else {
                    if (inputs[20] < 1.1718025) {
                        var5 = 0.0068493625;
                    } else {
                        var5 = 0.032772947;
                    }
                }
            } else {
                if (inputs[16] < 0.23195489) {
                    var5 = -0.021970177;
                } else {
                    if (inputs[9] < 5.21) {
                        var5 = 0.00011059864;
                    } else {
                        var5 = 0.027914057;
                    }
                }
            }
        }
    } else {
        var5 = -0.03070278;
    }
    double var6;
    if (inputs[10] < 1.185) {
        if (inputs[13] < 1675.32) {
            var6 = 0.03641624;
        } else {
            if (inputs[5] < 1827.1575) {
                if (inputs[15] < 0.3429091) {
                    if (inputs[16] < -0.11422557) {
                        var6 = -0.019002916;
                    } else {
                        var6 = -0.04018687;
                    }
                } else {
                    var6 = -0.0005767555;
                }
            } else {
                if (inputs[18] < 1.6192594) {
                    if (inputs[19] < 1.3315202) {
                        var6 = 0.019907014;
                    } else {
                        var6 = -0.00925995;
                    }
                } else {
                    var6 = 0.03139213;
                }
            }
        }
    } else {
        if (inputs[13] < 1706.51) {
            if (inputs[3] < 1665.805) {
                var6 = -0.0050681983;
            } else {
                var6 = -0.051443797;
            }
        } else {
            if (inputs[6] < 1838.545) {
                if (inputs[16] < -0.14364661) {
                    var6 = -0.011841004;
                } else {
                    if (inputs[15] < 0.20012121) {
                        var6 = 0.038754202;
                    } else {
                        var6 = 0.0018263815;
                    }
                }
            } else {
                if (inputs[10] < 3.645) {
                    if (inputs[19] < 1.7740611) {
                        var6 = -0.011158671;
                    } else {
                        var6 = -0.040128563;
                    }
                } else {
                    var6 = 0.009756156;
                }
            }
        }
    }
    double var7;
    if (inputs[20] < 0.08772628) {
        if (inputs[23] < -55.599304) {
            var7 = -0.020561283;
        } else {
            if (inputs[23] < -21.98774) {
                if (inputs[9] < 5.695) {
                    var7 = 0.0378318;
                } else {
                    var7 = 0.0040388466;
                }
            } else {
                if (inputs[17] < 1.7805235) {
                    if (inputs[13] < 1778.21) {
                        var7 = -0.029721059;
                    } else {
                        var7 = 0.0035872173;
                    }
                } else {
                    var7 = 0.022232905;
                }
            }
        }
    } else {
        if (inputs[21] < -2.7182846) {
            if (inputs[23] < -15.428504) {
                var7 = -0.006246964;
            } else {
                var7 = 0.025301991;
            }
        } else {
            if (inputs[10] < 1.16) {
                if (inputs[16] < 0.11796992) {
                    var7 = 0.016672745;
                } else {
                    var7 = -0.016636908;
                }
            } else {
                if (inputs[15] < -0.208) {
                    var7 = -0.043268133;
                } else {
                    var7 = -0.019735929;
                }
            }
        }
    }
    double var8;
    if (inputs[20] < 0.106602594) {
        if (inputs[13] < 1854.9) {
            if (inputs[13] < 1820.89) {
                if (inputs[25] < 3.2899106) {
                    if (inputs[11] < 0.31) {
                        var8 = 0.036847066;
                    } else {
                        var8 = 0.004129999;
                    }
                } else {
                    var8 = -0.0063122734;
                }
            } else {
                var8 = -0.026914356;
            }
        } else {
            if (inputs[13] < 1908.8) {
                var8 = 0.04346938;
            } else {
                if (inputs[2] < 1.9664285) {
                    var8 = 0.02108821;
                } else {
                    var8 = -0.010965616;
                }
            }
        }
    } else {
        if (inputs[11] < 0.35) {
            if (inputs[11] < 0.23) {
                var8 = 0.0024501807;
            } else {
                if (inputs[19] < 2.0286694) {
                    var8 = -0.016955579;
                } else {
                    var8 = -0.041807257;
                }
            }
        } else {
            if (inputs[16] < 0.05710526) {
                if (inputs[1] < 31.394823) {
                    var8 = -0.0030188337;
                } else {
                    var8 = 0.029441146;
                }
            } else {
                var8 = -0.020135954;
            }
        }
    }
    double var9;
    if (inputs[16] < -0.16803007) {
        if (inputs[15] < -0.3089697) {
            if (inputs[17] < 1.2208292) {
                var9 = 0.023869934;
            } else {
                if (inputs[13] < 1856.33) {
                    var9 = -0.025702538;
                } else {
                    var9 = 0.013946662;
                }
            }
        } else {
            var9 = -0.036472782;
        }
    } else {
        if (inputs[24] < -19.664974) {
            var9 = 0.037651476;
        } else {
            if (inputs[13] < 1772.31) {
                if (inputs[13] < 1730.38) {
                    if (inputs[15] < -0.14654545) {
                        var9 = -0.022740223;
                    } else {
                        var9 = 0.010176809;
                    }
                } else {
                    var9 = -0.029859252;
                }
            } else {
                if (inputs[13] < 1805.01) {
                    var9 = 0.02855576;
                } else {
                    if (inputs[24] < 23.25806) {
                        var9 = -0.0004951206;
                    } else {
                        var9 = 0.027950032;
                    }
                }
            }
        }
    }
    double var10;
    if (inputs[23] < -63.956158) {
        var10 = -0.024397556;
    } else {
        if (inputs[21] < 3.4954956) {
            if (inputs[25] < 1.6705577) {
                var10 = -0.01953505;
            } else {
                if (inputs[15] < -0.71115154) {
                    var10 = 0.025282504;
                } else {
                    if (inputs[10] < 3.0025) {
                        var10 = 0.008360227;
                    } else {
                        var10 = -0.009284568;
                    }
                }
            }
        } else {
            var10 = -0.017785603;
        }
    }
    double var11;
    if (inputs[13] < 1852.78) {
        if (inputs[25] < 1.8914771) {
            var11 = -0.034504864;
        } else {
            if (inputs[25] < 3.1514523) {
                if (inputs[8] < 1813.39) {
                    if (inputs[4] < 1779.85) {
                        var11 = 0.0015886637;
                    } else {
                        var11 = 0.042491168;
                    }
                } else {
                    var11 = -0.017890543;
                }
            } else {
                if (inputs[17] < 1.3987509) {
                    if (inputs[24] < -15.776913) {
                        var11 = 0.023781149;
                    } else {
                        var11 = -0.021575259;
                    }
                } else {
                    var11 = -0.043162845;
                }
            }
        }
    } else {
        if (inputs[18] < 1.3279924) {
            var11 = -0.0097259395;
        } else {
            if (inputs[11] < 0.29) {
                var11 = -0.0029952093;
            } else {
                if (inputs[20] < -0.29775542) {
                    var11 = 0.041687645;
                } else {
                    var11 = 0.015607049;
                }
            }
        }
    }
    double var12;
    if (inputs[2] < 1.7578571) {
        if (inputs[2] < 1.5585715) {
            if (inputs[19] < 1.4932142) {
                if (inputs[9] < 5.75) {
                    if (inputs[9] < 4.7025) {
                        var12 = 0.004406032;
                    } else {
                        var12 = 0.031477425;
                    }
                } else {
                    var12 = -0.024063801;
                }
            } else {
                if (inputs[3] < 1776.65) {
                    var12 = -0.035804387;
                } else {
                    var12 = -0.00044556858;
                }
            }
        } else {
            if (inputs[10] < 1.105) {
                var12 = 0.034084335;
            } else {
                var12 = 0.0022143894;
            }
        }
    } else {
        if (inputs[18] < 1.7295618) {
            if (inputs[17] < 1.2055439) {
                var12 = -0.011382275;
            } else {
                var12 = -0.046220835;
            }
        } else {
            if (inputs[9] < 2.985) {
                var12 = 0.021215396;
            } else {
                if (inputs[13] < 1846.82) {
                    if (inputs[25] < 2.3944354) {
                        var12 = -0.029623697;
                    } else {
                        var12 = -0.0060205804;
                    }
                } else {
                    var12 = 0.004770751;
                }
            }
        }
    }
    double var13;
    if (inputs[18] < 1.1976143) {
        if (inputs[20] < -0.9729088) {
            var13 = 0.012323362;
        } else {
            if (inputs[24] < -12.509911) {
                var13 = -0.0008865092;
            } else {
                var13 = -0.033825938;
            }
        }
    } else {
        if (inputs[9] < 2.4575) {
            if (inputs[17] < 1.3987509) {
                var13 = 0.028808922;
            } else {
                var13 = 0.0025599692;
            }
        } else {
            if (inputs[2] < 1.305) {
                if (inputs[19] < 1.2894278) {
                    var13 = 0.031911056;
                } else {
                    var13 = 0.0024205379;
                }
            } else {
                if (inputs[20] < -0.4211998) {
                    if (inputs[19] < 2.5699441) {
                        var13 = -0.0034276014;
                    } else {
                        var13 = 0.023101663;
                    }
                } else {
                    if (inputs[8] < 1770.48) {
                        var13 = -0.038497373;
                    } else {
                        var13 = -0.0016598504;
                    }
                }
            }
        }
    }
    double var14;
    if (inputs[15] < 0.3481818) {
        if (inputs[23] < -23.573027) {
            if (inputs[13] < 1750.23) {
                if (inputs[19] < 1.4192966) {
                    var14 = 0.01132013;
                } else {
                    var14 = -0.014748031;
                }
            } else {
                if (inputs[16] < -0.14364661) {
                    var14 = -0.046314694;
                } else {
                    var14 = -0.014043834;
                }
            }
        } else {
            if (inputs[23] < 10.910757) {
                if (inputs[10] < 0.4375) {
                    var14 = -0.021795304;
                } else {
                    if (inputs[3] < 1780.435) {
                        var14 = -0.005886118;
                    } else {
                        var14 = 0.022717394;
                    }
                }
            } else {
                var14 = -0.023050712;
            }
        }
    } else {
        if (inputs[19] < 1.3074727) {
            var14 = 0.04653965;
        } else {
            if (inputs[15] < 0.5062424) {
                if (inputs[14] < 0.735) {
                    var14 = 0.016331976;
                } else {
                    var14 = -0.032913096;
                }
            } else {
                if (inputs[10] < 1.0175) {
                    var14 = 0.03170766;
                } else {
                    var14 = 0.0075860033;
                }
            }
        }
    }
    double var15;
    if (inputs[20] < -0.07321377) {
        if (inputs[25] < 1.8102108) {
            var15 = -0.022414643;
        } else {
            if (inputs[16] < -0.16803007) {
                var15 = -0.004018469;
            } else {
                if (inputs[16] < 0.035654135) {
                    var15 = 0.037553836;
                } else {
                    if (inputs[2] < 1.7664286) {
                        var15 = 0.017851884;
                    } else {
                        var15 = -0.015158775;
                    }
                }
            }
        }
    } else {
        if (inputs[18] < 1.3921552) {
            if (inputs[16] < 0.08121804) {
                if (inputs[10] < 1.645) {
                    var15 = 0.0001964203;
                } else {
                    var15 = -0.037924413;
                }
            } else {
                var15 = -0.048014686;
            }
        } else {
            if (inputs[1] < 69.46455) {
                if (inputs[1] < 59.95259) {
                    if (inputs[20] < 1.4213508) {
                        var15 = -0.0130265085;
                    } else {
                        var15 = 0.019476186;
                    }
                } else {
                    var15 = 0.035745867;
                }
            } else {
                var15 = -0.029802267;
            }
        }
    }
    double var16;
    if (inputs[23] < 10.910757) {
        if (inputs[5] < 1781.945) {
            if (inputs[20] < -0.3163457) {
                if (inputs[8] < 1668.26) {
                    var16 = 0.025610648;
                } else {
                    var16 = -0.0069114966;
                }
            } else {
                if (inputs[9] < 3.935) {
                    var16 = -0.0003940386;
                } else {
                    if (inputs[2] < 1.3114285) {
                        var16 = -0.007182923;
                    } else {
                        var16 = -0.0451348;
                    }
                }
            }
        } else {
            if (inputs[3] < 1899.9) {
                if (inputs[21] < -2.9766355) {
                    var16 = -0.0042808903;
                } else {
                    if (inputs[9] < 2.595) {
                        var16 = 0.002395991;
                    } else {
                        var16 = 0.026157467;
                    }
                }
            } else {
                if (inputs[25] < 2.4294116) {
                    var16 = 0.00956181;
                } else {
                    var16 = -0.020791229;
                }
            }
        }
    } else {
        var16 = -0.019906772;
    }
    double var17;
    if (inputs[25] < 3.3337195) {
        if (inputs[16] < -0.041323308) {
            if (inputs[1] < 30.82347) {
                if (inputs[15] < -0.44751516) {
                    var17 = 0.011636748;
                } else {
                    var17 = -0.026577916;
                }
            } else {
                if (inputs[16] < -0.16133834) {
                    var17 = 0.008876337;
                } else {
                    if (inputs[23] < -1.2926564) {
                        var17 = 0.04377656;
                    } else {
                        var17 = 0.019852314;
                    }
                }
            }
        } else {
            if (inputs[25] < 2.0631578) {
                if (inputs[1] < 62.119) {
                    var17 = -0.031007597;
                } else {
                    var17 = -0.0049009314;
                }
            } else {
                if (inputs[18] < 1.2593713) {
                    var17 = -0.014192942;
                } else {
                    if (inputs[17] < 1.193861) {
                        var17 = 0.036721025;
                    } else {
                        var17 = 0.0044982317;
                    }
                }
            }
        }
    } else {
        if (inputs[25] < 3.964557) {
            if (inputs[17] < 1.2666112) {
                var17 = -0.00850214;
            } else {
                var17 = -0.0358865;
            }
        } else {
            var17 = 0.010516954;
        }
    }
    double var18;
    if (inputs[20] < 0.06041935) {
        if (inputs[23] < 3.5438905) {
            if (inputs[1] < 61.282856) {
                if (inputs[18] < 1.8482535) {
                    if (inputs[9] < 2.4475) {
                        var18 = 0.011960182;
                    } else {
                        var18 = -0.026577663;
                    }
                } else {
                    var18 = 0.015761113;
                }
            } else {
                if (inputs[9] < 2.985) {
                    var18 = 0.037408657;
                } else {
                    if (inputs[15] < 0.30321214) {
                        var18 = 0.033710543;
                    } else {
                        var18 = 0.005131862;
                    }
                }
            }
        } else {
            var18 = -0.019116588;
        }
    } else {
        if (inputs[11] < 0.34) {
            if (inputs[11] < 0.23) {
                var18 = -0.0016145401;
            } else {
                if (inputs[16] < 0.064518794) {
                    var18 = -0.027641142;
                } else {
                    var18 = -0.05230989;
                }
            }
        } else {
            if (inputs[16] < 0.05710526) {
                if (inputs[20] < 0.86715806) {
                    var18 = -0.011266739;
                } else {
                    if (inputs[14] < -0.752) {
                        var18 = 0.01041125;
                    } else {
                        var18 = 0.033557978;
                    }
                }
            } else {
                var18 = -0.02159134;
            }
        }
    }
    double var19;
    if (inputs[9] < 2.42) {
        if (inputs[17] < 1.1588719) {
            var19 = -0.007958447;
        } else {
            if (inputs[16] < -0.004045113) {
                var19 = 0.046227857;
            } else {
                var19 = 0.0074166283;
            }
        }
    } else {
        if (inputs[25] < 2.1747572) {
            if (inputs[18] < 1.8450803) {
                var19 = -0.044749603;
            } else {
                if (inputs[2] < 2.8635714) {
                    var19 = 0.010381488;
                } else {
                    var19 = -0.016625207;
                }
            }
        } else {
            if (inputs[23] < -59.855896) {
                var19 = -0.022033649;
            } else {
                if (inputs[5] < 1913.09) {
                    if (inputs[1] < 26.023777) {
                        var19 = 0.031543497;
                    } else {
                        var19 = 0.0071487813;
                    }
                } else {
                    if (inputs[3] < 1938.925) {
                        var19 = -0.03580204;
                    } else {
                        var19 = 0.006175739;
                    }
                }
            }
        }
    }
    double var20;
    if (inputs[5] < 1781.945) {
        if (inputs[20] < 1.163589) {
            if (inputs[17] < 1.2774255) {
                if (inputs[23] < -48.36916) {
                    var20 = 0.014666709;
                } else {
                    var20 = -0.027843367;
                }
            } else {
                if (inputs[2] < 2.1121428) {
                    if (inputs[19] < 1.4192966) {
                        var20 = 0.016756803;
                    } else {
                        var20 = -0.022034885;
                    }
                } else {
                    var20 = 0.024079293;
                }
            }
        } else {
            var20 = -0.03140164;
        }
    } else {
        if (inputs[13] < 1808.35) {
            var20 = 0.025302174;
        } else {
            if (inputs[1] < 32.795147) {
                if (inputs[15] < -0.43333334) {
                    var20 = -0.001254796;
                } else {
                    var20 = -0.039994325;
                }
            } else {
                if (inputs[1] < 35.50532) {
                    var20 = 0.03409917;
                } else {
                    if (inputs[24] < 19.951187) {
                        var20 = -0.004114629;
                    } else {
                        var20 = 0.02304342;
                    }
                }
            }
        }
    }
    double var21;
    if (inputs[17] < 1.2666112) {
        if (inputs[2] < 2.1185715) {
            if (inputs[18] < 1.4568651) {
                if (inputs[20] < -0.09276572) {
                    if (inputs[19] < 1.160412) {
                        var21 = -0.0029817591;
                    } else {
                        var21 = 0.026559183;
                    }
                } else {
                    if (inputs[20] < 0.8231325) {
                        var21 = -0.024727227;
                    } else {
                        var21 = 0.009968548;
                    }
                }
            } else {
                if (inputs[23] < -13.575977) {
                    var21 = 0.042814303;
                } else {
                    var21 = 0.016827278;
                }
            }
        } else {
            var21 = -0.029417567;
        }
    } else {
        if (inputs[20] < 1.163589) {
            if (inputs[2] < 2.732143) {
                if (inputs[10] < 2.1375) {
                    if (inputs[16] < 0.15609023) {
                        var21 = 0.010754446;
                    } else {
                        var21 = -0.022815675;
                    }
                } else {
                    if (inputs[20] < -0.005653874) {
                        var21 = -0.0025504644;
                    } else {
                        var21 = -0.039567303;
                    }
                }
            } else {
                var21 = 0.014591408;
            }
        } else {
            var21 = -0.025877425;
        }
    }
    double var22;
    if (inputs[14] < -1.168) {
        if (inputs[16] < -0.17726316) {
            var22 = -0.0033695588;
        } else {
            var22 = 0.03271993;
        }
    } else {
        if (inputs[15] < 0.3429091) {
            if (inputs[15] < 0.27848485) {
                if (inputs[10] < 2.1375) {
                    if (inputs[9] < 4.385) {
                        var22 = -0.008902437;
                    } else {
                        var22 = 0.02210896;
                    }
                } else {
                    if (inputs[19] < 1.8369683) {
                        var22 = -0.03541706;
                    } else {
                        var22 = 0.0009368489;
                    }
                }
            } else {
                var22 = -0.039441112;
            }
        } else {
            if (inputs[23] < -23.777779) {
                var22 = 0.022321709;
            } else {
                if (inputs[1] < 69.5182) {
                    if (inputs[20] < -0.3163457) {
                        var22 = -0.0073214755;
                    } else {
                        var22 = 0.025527643;
                    }
                } else {
                    var22 = -0.020876937;
                }
            }
        }
    }
    double var23;
    if (inputs[23] < 25.207453) {
        if (inputs[20] < 0.106602594) {
            if (inputs[21] < 2.5932102) {
                if (inputs[1] < 64.21748) {
                    if (inputs[1] < 60.820408) {
                        var23 = -0.0014140644;
                    } else {
                        var23 = 0.038662095;
                    }
                } else {
                    var23 = -0.024088554;
                }
            } else {
                if (inputs[19] < 1.3074727) {
                    var23 = 0.03346701;
                } else {
                    if (inputs[15] < 0.50357574) {
                        var23 = -0.0049298685;
                    } else {
                        var23 = 0.033379145;
                    }
                }
            }
        } else {
            if (inputs[23] < -3.9755354) {
                if (inputs[23] < -32.626118) {
                    if (inputs[20] < 1.4213508) {
                        var23 = -0.013486364;
                    } else {
                        var23 = 0.018482473;
                    }
                } else {
                    if (inputs[9] < 4.105) {
                        var23 = -0.016862625;
                    } else {
                        var23 = -0.04640918;
                    }
                }
            } else {
                if (inputs[15] < -0.3449091) {
                    var23 = 0.027751695;
                } else {
                    var23 = -0.002462711;
                }
            }
        }
    } else {
        var23 = -0.028031932;
    }
    double var24;
    if (inputs[3] < 1827.035) {
        if (inputs[10] < 0.3275) {
            var24 = -0.029774085;
        } else {
            if (inputs[23] < -16.935852) {
                if (inputs[19] < 1.4670558) {
                    if (inputs[17] < 1.2465311) {
                        var24 = 0.0051711765;
                    } else {
                        var24 = 0.0343638;
                    }
                } else {
                    if (inputs[2] < 1.9985714) {
                        var24 = -0.025859864;
                    } else {
                        var24 = 0.021588208;
                    }
                }
            } else {
                if (inputs[21] < -2.3217247) {
                    var24 = 0.0054013445;
                } else {
                    var24 = -0.02629058;
                }
            }
        }
    } else {
        if (inputs[10] < 0.205) {
            var24 = 0.030728836;
        } else {
            if (inputs[1] < 32.738472) {
                var24 = -0.016896335;
            } else {
                if (inputs[1] < 36.89342) {
                    var24 = 0.03269452;
                } else {
                    if (inputs[4] < 1923.46) {
                        var24 = 0.01381053;
                    } else {
                        var24 = -0.01765035;
                    }
                }
            }
        }
    }
    double var25;
    if (inputs[16] < -0.25378194) {
        if (inputs[11] < 0.23) {
            var25 = 0.008710068;
        } else {
            var25 = -0.04452698;
        }
    } else {
        if (inputs[1] < 26.193537) {
            var25 = 0.026029121;
        } else {
            if (inputs[1] < 30.003166) {
                var25 = -0.02968594;
            } else {
                if (inputs[16] < -0.08324812) {
                    if (inputs[5] < 1786.4475) {
                        var25 = 0.00048133713;
                    } else {
                        var25 = 0.026627418;
                    }
                } else {
                    if (inputs[25] < 2.0785584) {
                        var25 = -0.018360652;
                    } else {
                        var25 = 0.0049783075;
                    }
                }
            }
        }
    }
    double var26;
    if (inputs[10] < 2.4825) {
        if (inputs[10] < 0.66) {
            if (inputs[15] < 0.3481818) {
                if (inputs[2] < 1.3571428) {
                    var26 = -0.034985557;
                } else {
                    if (inputs[21] < -2.0811305) {
                        var26 = 0.022289984;
                    } else {
                        var26 = -0.016857656;
                    }
                }
            } else {
                var26 = 0.016486835;
            }
        } else {
            if (inputs[19] < 2.144363) {
                if (inputs[15] < -0.43333334) {
                    var26 = 0.034696747;
                } else {
                    if (inputs[11] < 0.33) {
                        var26 = -0.010956813;
                    } else {
                        var26 = 0.01613756;
                    }
                }
            } else {
                var26 = -0.014273987;
            }
        }
    } else {
        if (inputs[2] < 2.3585715) {
            if (inputs[2] < 1.4471428) {
                var26 = -0.009308339;
            } else {
                var26 = -0.044412933;
            }
        } else {
            if (inputs[25] < 2.4294116) {
                var26 = 0.01680131;
            } else {
                var26 = -0.00979826;
            }
        }
    }
    double var27;
    if (inputs[23] < 19.42722) {
        if (inputs[10] < 2.205) {
            if (inputs[16] < 0.18751879) {
                if (inputs[14] < 0.55) {
                    if (inputs[21] < -1.8869901) {
                        var27 = 0.011468274;
                    } else {
                        var27 = -0.023138955;
                    }
                } else {
                    if (inputs[23] < -32.103245) {
                        var27 = 0.035522506;
                    } else {
                        var27 = 0.008357269;
                    }
                }
            } else {
                if (inputs[15] < 0.44769698) {
                    var27 = -0.027349189;
                } else {
                    var27 = 0.010271233;
                }
            }
        } else {
            if (inputs[2] < 2.78) {
                if (inputs[23] < -45.13154) {
                    var27 = 0.014197114;
                } else {
                    if (inputs[19] < 1.6515522) {
                        var27 = -0.040605117;
                    } else {
                        var27 = -0.010530593;
                    }
                }
            } else {
                var27 = 0.011131846;
            }
        }
    } else {
        var27 = -0.031106073;
    }
    double var28;
    if (inputs[14] < -1.185) {
        var28 = 0.020798964;
    } else {
        if (inputs[25] < 1.8835075) {
            if (inputs[24] < 2.8597767) {
                var28 = -0.03459117;
            } else {
                var28 = -0.00017122121;
            }
        } else {
            if (inputs[2] < 2.67) {
                if (inputs[17] < 1.2800875) {
                    if (inputs[18] < 1.5035175) {
                        var28 = 0.00047199722;
                    } else {
                        var28 = 0.02149836;
                    }
                } else {
                    if (inputs[14] < 0.952) {
                        var28 = -0.016858319;
                    } else {
                        var28 = 0.0053887535;
                    }
                }
            } else {
                var28 = 0.022676436;
            }
        }
    }
    double var29;
    if (inputs[23] < 10.910757) {
        if (inputs[8] < 1942.16) {
            if (inputs[24] < -24.57918) {
                var29 = 0.018070534;
            } else {
                if (inputs[16] < -0.11656391) {
                    if (inputs[15] < -0.4562424) {
                        var29 = 0.00565779;
                    } else {
                        var29 = -0.024937004;
                    }
                } else {
                    if (inputs[16] < -0.041323308) {
                        var29 = 0.021891266;
                    } else {
                        var29 = -0.00074875803;
                    }
                }
            }
        } else {
            var29 = 0.028898297;
        }
    } else {
        var29 = -0.017176919;
    }
    double var30;
    if (inputs[1] < 30.82347) {
        if (inputs[20] < 0.83157694) {
            if (inputs[15] < -0.40339395) {
                var30 = -0.03379193;
            } else {
                var30 = 0.0011449716;
            }
        } else {
            var30 = 0.0052467505;
        }
    } else {
        if (inputs[24] < -17.83942) {
            var30 = 0.022984007;
        } else {
            if (inputs[15] < 0.3481818) {
                if (inputs[14] < -0.923) {
                    var30 = 0.020567432;
                } else {
                    if (inputs[20] < -1.3405008) {
                        var30 = 0.015222888;
                    } else {
                        var30 = -0.016057547;
                    }
                }
            } else {
                if (inputs[16] < 0.15609023) {
                    if (inputs[23] < -23.777779) {
                        var30 = 0.043762766;
                    } else {
                        var30 = 0.006236484;
                    }
                } else {
                    if (inputs[3] < 1819.97) {
                        var30 = -0.016385512;
                    } else {
                        var30 = 0.011382777;
                    }
                }
            }
        }
    }
    double var31;
    if (inputs[24] < -20.653982) {
        if (inputs[10] < 2.03) {
            var31 = 0.032732695;
        } else {
            var31 = 0.0001479113;
        }
    } else {
        if (inputs[15] < 0.39478788) {
            if (inputs[25] < 3.3829618) {
                if (inputs[18] < 1.1163709) {
                    var31 = 0.014379574;
                } else {
                    if (inputs[21] < -1.6590085) {
                        var31 = 0.0036653145;
                    } else {
                        var31 = -0.024438443;
                    }
                }
            } else {
                var31 = -0.032902617;
            }
        } else {
            if (inputs[15] < 0.43066666) {
                var31 = 0.03680162;
            } else {
                if (inputs[1] < 74.1825) {
                    if (inputs[23] < -23.777779) {
                        var31 = 0.031282116;
                    } else {
                        var31 = 0.003964917;
                    }
                } else {
                    var31 = -0.013582284;
                }
            }
        }
    }
    double var32;
    if (inputs[10] < 0.35) {
        if (inputs[25] < 2.8755717) {
            var32 = 0.000836687;
        } else {
            var32 = -0.03621799;
        }
    } else {
        if (inputs[9] < 2.965) {
            if (inputs[16] < -0.0798797) {
                var32 = 0.03765234;
            } else {
                if (inputs[1] < 60.98387) {
                    var32 = -0.010330251;
                } else {
                    var32 = 0.02894897;
                }
            }
        } else {
            if (inputs[20] < -0.5909319) {
                if (inputs[25] < 2.6388013) {
                    var32 = 0.0015902133;
                } else {
                    if (inputs[10] < 2.105) {
                        var32 = 0.035162665;
                    } else {
                        var32 = 0.011733293;
                    }
                }
            } else {
                if (inputs[11] < 0.37) {
                    if (inputs[19] < 1.8369683) {
                        var32 = -0.03150903;
                    } else {
                        var32 = 0.0012922011;
                    }
                } else {
                    if (inputs[2] < 1.2021428) {
                        var32 = 0.033090375;
                    } else {
                        var32 = -0.0021191447;
                    }
                }
            }
        }
    }
    double var33;
    if (inputs[2] < 2.78) {
        if (inputs[19] < 1.1154667) {
            if (inputs[23] < -31.334112) {
                var33 = 0.029012911;
            } else {
                var33 = 0.010409585;
            }
        } else {
            if (inputs[25] < 1.8732743) {
                var33 = -0.028614705;
            } else {
                if (inputs[18] < 1.1123799) {
                    var33 = -0.025435414;
                } else {
                    if (inputs[17] < 1.2256917) {
                        var33 = 0.014132047;
                    } else {
                        var33 = -0.00507566;
                    }
                }
            }
        }
    } else {
        if (inputs[6] < 1925.67) {
            var33 = 0.026382497;
        } else {
            var33 = 0.0041125054;
        }
    }
    double var34;
    if (inputs[23] < -35.493023) {
        if (inputs[14] < -0.763) {
            var34 = -0.033912;
        } else {
            if (inputs[11] < 0.36) {
                var34 = -0.019751083;
            } else {
                if (inputs[21] < 2.0965884) {
                    var34 = -0.0041;
                } else {
                    var34 = 0.025835844;
                }
            }
        }
    } else {
        if (inputs[23] < 0.9116595) {
            if (inputs[1] < 68.180214) {
                if (inputs[16] < 0.21756391) {
                    if (inputs[14] < -1.185) {
                        var34 = 0.030566156;
                    } else {
                        var34 = 0.004442485;
                    }
                } else {
                    var34 = 0.043822378;
                }
            } else {
                if (inputs[2] < 1.405) {
                    var34 = 0.010153447;
                } else {
                    var34 = -0.021032909;
                }
            }
        } else {
            if (inputs[2] < 1.7892857) {
                var34 = 0.0018808682;
            } else {
                var34 = -0.032679502;
            }
        }
    }
    double var35;
    if (inputs[20] < 0.08772628) {
        if (inputs[11] < 0.41) {
            if (inputs[8] < 1667.8) {
                var35 = 0.018950505;
            } else {
                if (inputs[16] < 0.18212782) {
                    if (inputs[19] < 1.3652738) {
                        var35 = -0.034195106;
                    } else {
                        var35 = -0.0055306638;
                    }
                } else {
                    if (inputs[1] < 73.153046) {
                        var35 = 0.02268953;
                    } else {
                        var35 = -0.013197935;
                    }
                }
            }
        } else {
            if (inputs[14] < 0.608) {
                var35 = 0.0046151946;
            } else {
                var35 = 0.035517942;
            }
        }
    } else {
        if (inputs[16] < 0.15496993) {
            if (inputs[1] < 31.216616) {
                if (inputs[20] < 0.84939736) {
                    var35 = -0.03300361;
                } else {
                    var35 = -0.007193571;
                }
            } else {
                if (inputs[23] < -32.103245) {
                    var35 = 0.021307057;
                } else {
                    if (inputs[18] < 1.5214299) {
                        var35 = -0.022730578;
                    } else {
                        var35 = 0.0069889477;
                    }
                }
            }
        } else {
            var35 = -0.030245269;
        }
    }
    double var36;
    if (inputs[15] < -0.5858182) {
        if (inputs[23] < -14.196849) {
            var36 = 0.003470561;
        } else {
            var36 = 0.031120028;
        }
    } else {
        if (inputs[17] < 2.40022) {
            if (inputs[1] < 31.467228) {
                if (inputs[1] < 26.495476) {
                    var36 = 0.00931272;
                } else {
                    if (inputs[2] < 1.4335715) {
                        var36 = -0.049211998;
                    } else {
                        var36 = -0.0034497634;
                    }
                }
            } else {
                if (inputs[23] < -19.270708) {
                    if (inputs[25] < 2.7594762) {
                        var36 = 0.0007675145;
                    } else {
                        var36 = 0.025216341;
                    }
                } else {
                    if (inputs[4] < 1775.015) {
                        var36 = -0.02955684;
                    } else {
                        var36 = 0.0027411731;
                    }
                }
            }
        } else {
            var36 = -0.035255663;
        }
    }
    double var37;
    if (inputs[1] < 31.125147) {
        if (inputs[10] < 0.6925) {
            var37 = -0.034064684;
        } else {
            if (inputs[10] < 2.1375) {
                var37 = 0.019327972;
            } else {
                if (inputs[20] < 0.84939736) {
                    var37 = -0.042414114;
                } else {
                    var37 = -0.0071918345;
                }
            }
        }
    } else {
        if (inputs[24] < -16.75377) {
            var37 = 0.03279978;
        } else {
            if (inputs[19] < 2.7001708) {
                if (inputs[16] < 0.19874436) {
                    if (inputs[25] < 2.2597165) {
                        var37 = 0.011772343;
                    } else {
                        var37 = -0.0062340437;
                    }
                } else {
                    if (inputs[10] < 1.355) {
                        var37 = -0.04415717;
                    } else {
                        var37 = 0.0078382995;
                    }
                }
            } else {
                if (inputs[19] < 3.4676204) {
                    var37 = 0.034590032;
                } else {
                    var37 = 0.0050388;
                }
            }
        }
    }
    double var38;
    if (inputs[16] < -0.16803007) {
        if (inputs[9] < 4.3075) {
            var38 = -0.030717835;
        } else {
            if (inputs[10] < 1.575) {
                var38 = 0.02025741;
            } else {
                if (inputs[20] < 0.54795927) {
                    var38 = 0.008658202;
                } else {
                    var38 = -0.034972318;
                }
            }
        }
    } else {
        if (inputs[24] < -18.971659) {
            var38 = 0.027307788;
        } else {
            if (inputs[11] < 0.45) {
                if (inputs[19] < 1.1154667) {
                    var38 = 0.030182881;
                } else {
                    if (inputs[15] < 0.3798788) {
                        var38 = -0.0124725625;
                    } else {
                        var38 = 0.007343241;
                    }
                }
            } else {
                var38 = -0.022274636;
            }
        }
    }
    double var39;
    if (inputs[18] < 1.2168549) {
        if (inputs[10] < 2.1375) {
            if (inputs[15] < 0.23206061) {
                if (inputs[25] < 3.0107527) {
                    var39 = -0.0022474506;
                } else {
                    var39 = 0.027656052;
                }
            } else {
                var39 = -0.020843502;
            }
        } else {
            var39 = -0.035196606;
        }
    } else {
        if (inputs[17] < 2.5590653) {
            if (inputs[11] < 0.2) {
                var39 = 0.032327767;
            } else {
                if (inputs[21] < -2.872818) {
                    var39 = -0.009698296;
                } else {
                    if (inputs[10] < 1.23) {
                        var39 = 0.017003076;
                    } else {
                        var39 = -0.00017841453;
                    }
                }
            }
        } else {
            var39 = -0.016390394;
        }
    }
    double var40;
    if (inputs[17] < 0.8197219) {
        var40 = -0.02405704;
    } else {
        if (inputs[19] < 1.1199208) {
            var40 = 0.025890749;
        } else {
            if (inputs[24] < -20.12975) {
                if (inputs[24] < -26.2384) {
                    var40 = -0.010216752;
                } else {
                    if (inputs[17] < 1.3955787) {
                        var40 = 0.03973753;
                    } else {
                        var40 = 0.0052870554;
                    }
                }
            } else {
                if (inputs[18] < 1.6558771) {
                    if (inputs[8] < 1805.09) {
                        var40 = -0.025051065;
                    } else {
                        var40 = -0.003232281;
                    }
                } else {
                    if (inputs[23] < 4.9678183) {
                        var40 = 0.006524653;
                    } else {
                        var40 = -0.013557806;
                    }
                }
            }
        }
    }
    double var41;
    if (inputs[14] < 0.93) {
        if (inputs[24] < -19.664974) {
            if (inputs[24] < -26.2384) {
                var41 = -0.013165589;
            } else {
                if (inputs[21] < -3.0357554) {
                    var41 = 0.03682563;
                } else {
                    var41 = 0.011249459;
                }
            }
        } else {
            if (inputs[1] < 30.82347) {
                var41 = -0.03328601;
            } else {
                if (inputs[19] < 1.3179533) {
                    if (inputs[10] < 0.95) {
                        var41 = 0.026638847;
                    } else {
                        var41 = -0.011064191;
                    }
                } else {
                    if (inputs[19] < 1.8027071) {
                        var41 = -0.021015357;
                    } else {
                        var41 = -0.00038262573;
                    }
                }
            }
        }
    } else {
        if (inputs[17] < 1.6821961) {
            var41 = 0.034987137;
        } else {
            if (inputs[5] < 1818.8975) {
                var41 = 0.018524757;
            } else {
                var41 = -0.01172244;
            }
        }
    }
    double var42;
    if (inputs[25] < 2.946502) {
        if (inputs[25] < 1.8835075) {
            if (inputs[3] < 1848.65) {
                var42 = -0.026859058;
            } else {
                var42 = 0.008242686;
            }
        } else {
            if (inputs[18] < 1.3073698) {
                if (inputs[18] < 1.1484094) {
                    var42 = 0.008832371;
                } else {
                    var42 = -0.01601849;
                }
            } else {
                if (inputs[10] < 3.1275) {
                    if (inputs[16] < -0.041323308) {
                        var42 = 0.02791206;
                    } else {
                        var42 = 0.0106873065;
                    }
                } else {
                    var42 = -0.0006917674;
                }
            }
        }
    } else {
        if (inputs[20] < -0.4953674) {
            if (inputs[14] < 0.448) {
                var42 = -0.020317867;
            } else {
                var42 = 0.02348019;
            }
        } else {
            if (inputs[16] < 0.19218796) {
                if (inputs[17] < 1.0672319) {
                    var42 = -0.023920372;
                } else {
                    if (inputs[2] < 1.4264286) {
                        var42 = 0.013394475;
                    } else {
                        var42 = -0.021128848;
                    }
                }
            } else {
                var42 = -0.04063718;
            }
        }
    }
    double var43;
    if (inputs[25] < 2.3162615) {
        if (inputs[6] < 1834.63) {
            if (inputs[13] < 1731.27) {
                var43 = -0.014190802;
            } else {
                var43 = -0.04072399;
            }
        } else {
            if (inputs[2] < 2.0285714) {
                var43 = 0.026465679;
            } else {
                var43 = -0.011076901;
            }
        }
    } else {
        if (inputs[20] < 0.08772628) {
            if (inputs[24] < 17.506098) {
                if (inputs[5] < 1778.7025) {
                    if (inputs[24] < -12.862494) {
                        var43 = 0.029993732;
                    } else {
                        var43 = 0.006012349;
                    }
                } else {
                    if (inputs[2] < 1.5042857) {
                        var43 = -0.026202844;
                    } else {
                        var43 = 0.0139706135;
                    }
                }
            } else {
                if (inputs[3] < 1819.97) {
                    var43 = 0.010163534;
                } else {
                    var43 = 0.041290104;
                }
            }
        } else {
            if (inputs[14] < -0.653) {
                if (inputs[1] < 30.82347) {
                    var43 = -0.0023978034;
                } else {
                    var43 = 0.026419733;
                }
            } else {
                if (inputs[18] < 1.4149307) {
                    var43 = -0.033346433;
                } else {
                    var43 = 0.0031083245;
                }
            }
        }
    }
    double var44;
    if (inputs[17] < 0.8197219) {
        var44 = -0.024176558;
    } else {
        if (inputs[20] < 0.025593309) {
            if (inputs[3] < 1728.96) {
                if (inputs[6] < 1666.91) {
                    var44 = 0.017052662;
                } else {
                    var44 = 0.03668354;
                }
            } else {
                if (inputs[13] < 1854.9) {
                    if (inputs[17] < 1.2055439) {
                        var44 = 0.005002795;
                    } else {
                        var44 = -0.019261291;
                    }
                } else {
                    if (inputs[12] < 1922.22) {
                        var44 = 0.037212037;
                    } else {
                        var44 = -0.0039172894;
                    }
                }
            }
        } else {
            if (inputs[1] < 69.5182) {
                if (inputs[25] < 2.1560936) {
                    if (inputs[17] < 1.4736539) {
                        var44 = -0.036884204;
                    } else {
                        var44 = 0.003627184;
                    }
                } else {
                    if (inputs[16] < -0.23464662) {
                        var44 = -0.010749963;
                    } else {
                        var44 = 0.012670277;
                    }
                }
            } else {
                var44 = -0.04052276;
            }
        }
    }
    double var45;
    if (inputs[24] < -20.653982) {
        if (inputs[24] < -25.921698) {
            var45 = -0.005284944;
        } else {
            if (inputs[4] < 1808.115) {
                var45 = 0.012073032;
            } else {
                var45 = 0.037168972;
            }
        }
    } else {
        if (inputs[21] < -2.872818) {
            var45 = -0.028752513;
        } else {
            if (inputs[25] < 1.8835075) {
                if (inputs[13] < 1846.3) {
                    var45 = -0.031654146;
                } else {
                    var45 = -0.00060546293;
                }
            } else {
                if (inputs[23] < 1.182681) {
                    if (inputs[18] < 1.2593713) {
                        var45 = -0.0036662724;
                    } else {
                        var45 = 0.015157353;
                    }
                } else {
                    if (inputs[17] < 1.2465311) {
                        var45 = 0.007300986;
                    } else {
                        var45 = -0.0340314;
                    }
                }
            }
        }
    }
    double var46;
    if (inputs[4] < 1720.37) {
        if (inputs[13] < 1667.96) {
            if (inputs[4] < 1651.39) {
                var46 = -0.012467388;
            } else {
                var46 = 0.021448975;
            }
        } else {
            if (inputs[14] < 0.679) {
                var46 = -0.035586555;
            } else {
                var46 = -0.0083105005;
            }
        }
    } else {
        if (inputs[20] < -0.09276572) {
            if (inputs[2] < 2.0564287) {
                if (inputs[6] < 1826.915) {
                    if (inputs[6] < 1779.555) {
                        var46 = 0.024718551;
                    } else {
                        var46 = -0.014522881;
                    }
                } else {
                    if (inputs[9] < 3.2025) {
                        var46 = 0.040088505;
                    } else {
                        var46 = 0.010618088;
                    }
                }
            } else {
                if (inputs[20] < -1.0209947) {
                    var46 = -0.013408293;
                } else {
                    var46 = 0.0033732206;
                }
            }
        } else {
            if (inputs[11] < 0.21) {
                var46 = 0.017518586;
            } else {
                if (inputs[1] < 26.023777) {
                    var46 = 0.02078949;
                } else {
                    if (inputs[11] < 0.35) {
                        var46 = -0.02778058;
                    } else {
                        var46 = -0.0003298891;
                    }
                }
            }
        }
    }
    double var47;
    if (inputs[25] < 1.6705577) {
        var47 = -0.021545686;
    } else {
        if (inputs[25] < 3.3075356) {
            if (inputs[20] < -1.0644877) {
                if (inputs[10] < 1.535) {
                    var47 = 0.0014202544;
                } else {
                    var47 = 0.032489322;
                }
            } else {
                if (inputs[10] < 2.42) {
                    if (inputs[25] < 2.860633) {
                        var47 = 0.011502321;
                    } else {
                        var47 = -0.00825117;
                    }
                } else {
                    if (inputs[25] < 2.7251277) {
                        var47 = -0.029603532;
                    } else {
                        var47 = 0.00616419;
                    }
                }
            }
        } else {
            if (inputs[24] < -23.214403) {
                var47 = 0.019308172;
            } else {
                if (inputs[17] < 1.378135) {
                    if (inputs[10] < 1.89) {
                        var47 = -0.01970462;
                    } else {
                        var47 = 0.013131983;
                    }
                } else {
                    var47 = -0.03936858;
                }
            }
        }
    }
    double var48;
    if (inputs[16] < -0.239203) {
        if (inputs[3] < 1794.415) {
            var48 = 0.0001676088;
        } else {
            var48 = -0.026511787;
        }
    } else {
        if (inputs[1] < 25.699049) {
            var48 = 0.028953603;
        } else {
            if (inputs[1] < 31.125147) {
                var48 = -0.022384726;
            } else {
                if (inputs[16] < -0.028947368) {
                    if (inputs[14] < -0.763) {
                        var48 = 0.031278506;
                    } else {
                        var48 = 0.008439186;
                    }
                } else {
                    if (inputs[15] < 0.39478788) {
                        var48 = -0.010917237;
                    } else {
                        var48 = 0.009087192;
                    }
                }
            }
        }
    }
    double var49;
    if (inputs[2] < 1.6878572) {
        if (inputs[25] < 2.860633) {
            if (inputs[16] < 0.051766917) {
                if (inputs[25] < 2.3828723) {
                    var49 = 0.0069672177;
                } else {
                    var49 = 0.03282759;
                }
            } else {
                var49 = -0.005139646;
            }
        } else {
            if (inputs[25] < 3.964557) {
                if (inputs[20] < -1.1184866) {
                    var49 = 0.014373252;
                } else {
                    if (inputs[16] < -0.12616542) {
                        var49 = -0.0019755608;
                    } else {
                        var49 = -0.023253752;
                    }
                }
            } else {
                var49 = 0.020953503;
            }
        }
    } else {
        if (inputs[19] < 1.8369683) {
            if (inputs[10] < 1.2175) {
                var49 = -0.0076326146;
            } else {
                var49 = -0.038062606;
            }
        } else {
            if (inputs[2] < 2.195) {
                var49 = 0.020355081;
            } else {
                if (inputs[17] < 1.3955787) {
                    var49 = -0.031603053;
                } else {
                    if (inputs[17] < 2.102351) {
                        var49 = 0.019833867;
                    } else {
                        var49 = -0.008383337;
                    }
                }
            }
        }
    }
    double var50;
    if (inputs[25] < 4.345679) {
        if (inputs[24] < -25.921698) {
            var50 = -0.023108069;
        } else {
            if (inputs[14] < -1.185) {
                var50 = 0.020377005;
            } else {
                if (inputs[25] < 1.8835075) {
                    if (inputs[10] < 1.185) {
                        var50 = 0.0010656754;
                    } else {
                        var50 = -0.030203225;
                    }
                } else {
                    if (inputs[2] < 2.6864285) {
                        var50 = 0.0015324516;
                    } else {
                        var50 = 0.024947787;
                    }
                }
            }
        }
    } else {
        var50 = 0.029914426;
    }
    double var51;
    if (inputs[13] < 1667.96) {
        var51 = 0.016221322;
    } else {
        if (inputs[8] < 1712.04) {
            var51 = -0.029528957;
        } else {
            if (inputs[4] < 1727.25) {
                var51 = 0.026809132;
            } else {
                if (inputs[6] < 1762.775) {
                    var51 = -0.025911972;
                } else {
                    if (inputs[18] < 1.5945748) {
                        var51 = -0.0048749303;
                    } else {
                        var51 = 0.007936842;
                    }
                }
            }
        }
    }
    double var52;
    if (inputs[16] < 0.2694436) {
        if (inputs[24] < -20.471956) {
            if (inputs[16] < -0.16803007) {
                if (inputs[24] < -25.683517) {
                    var52 = -0.021358741;
                } else {
                    var52 = 0.01087254;
                }
            } else {
                var52 = 0.02352483;
            }
        } else {
            if (inputs[15] < 0.3481818) {
                if (inputs[15] < -0.5858182) {
                    var52 = 0.006037458;
                } else {
                    if (inputs[9] < 5.8425) {
                        var52 = -0.01024309;
                    } else {
                        var52 = -0.040534098;
                    }
                }
            } else {
                if (inputs[9] < 2.965) {
                    var52 = 0.028074726;
                } else {
                    if (inputs[2] < 1.3192858) {
                        var52 = 0.012600406;
                    } else {
                        var52 = -0.022380777;
                    }
                }
            }
        }
    } else {
        if (inputs[14] < 0.679) {
            var52 = 0.034688413;
        } else {
            var52 = -0.0006114758;
        }
    }
    double var53;
    if (inputs[17] < 2.40022) {
        if (inputs[18] < 1.568082) {
            if (inputs[2] < 2.0085714) {
                if (inputs[19] < 1.7180334) {
                    if (inputs[19] < 1.4670558) {
                        var53 = 0.0006283468;
                    } else {
                        var53 = -0.02699907;
                    }
                } else {
                    var53 = 0.020115849;
                }
            } else {
                var53 = -0.026485901;
            }
        } else {
            if (inputs[24] < -14.232029) {
                if (inputs[24] < -21.277676) {
                    var53 = 0.010600819;
                } else {
                    var53 = -0.017095538;
                }
            } else {
                if (inputs[21] < -1.6590085) {
                    var53 = 0.034716785;
                } else {
                    if (inputs[14] < 0.826) {
                        var53 = -0.0069806604;
                    } else {
                        var53 = 0.023986086;
                    }
                }
            }
        }
    } else {
        var53 = -0.016803037;
    }
    double var54;
    if (inputs[23] < -3.152488) {
        if (inputs[21] < 2.9065473) {
            if (inputs[13] < 1835.06) {
                if (inputs[13] < 1779.85) {
                    if (inputs[8] < 1726.94) {
                        var54 = -0.003624689;
                    } else {
                        var54 = -0.033832893;
                    }
                } else {
                    var54 = 0.017198805;
                }
            } else {
                if (inputs[18] < 1.6192594) {
                    var54 = -0.045029923;
                } else {
                    var54 = -0.00667512;
                }
            }
        } else {
            if (inputs[20] < -0.3115604) {
                var54 = 0.030727401;
            } else {
                var54 = -0.009557401;
            }
        }
    } else {
        if (inputs[19] < 1.2721828) {
            var54 = -0.0097352825;
        } else {
            if (inputs[9] < 2.39) {
                var54 = 0.033291288;
            } else {
                if (inputs[20] < 0.73104346) {
                    if (inputs[20] < -0.09276572) {
                        var54 = 0.011341032;
                    } else {
                        var54 = -0.01961541;
                    }
                } else {
                    var54 = 0.021170625;
                }
            }
        }
    }
    double var55;
    if (inputs[23] < 10.910757) {
        if (inputs[23] < -5.579464) {
            if (inputs[21] < -3.0842733) {
                var55 = -0.019120995;
            } else {
                if (inputs[2] < 1.1721429) {
                    var55 = 0.020638093;
                } else {
                    if (inputs[1] < 65.745186) {
                        var55 = 0.004848141;
                    } else {
                        var55 = -0.015308729;
                    }
                }
            }
        } else {
            if (inputs[19] < 1.6401807) {
                if (inputs[2] < 1.4235715) {
                    var55 = 0.016370934;
                } else {
                    var55 = -0.01692251;
                }
            } else {
                if (inputs[25] < 2.912995) {
                    if (inputs[25] < 2.1560936) {
                        var55 = 0.017679546;
                    } else {
                        var55 = 0.037708152;
                    }
                } else {
                    var55 = 0.005030245;
                }
            }
        }
    } else {
        if (inputs[10] < 1.21) {
            var55 = -0.006202459;
        } else {
            var55 = -0.024538826;
        }
    }
    double var56;
    if (inputs[1] < 74.73677) {
        if (inputs[18] < 1.8450803) {
            if (inputs[2] < 2.195) {
                if (inputs[21] < -3.4217253) {
                    var56 = 0.01707662;
                } else {
                    if (inputs[21] < -2.8872595) {
                        var56 = -0.033737775;
                    } else {
                        var56 = 0.0036784285;
                    }
                }
            } else {
                var56 = -0.029177584;
            }
        } else {
            if (inputs[10] < 1.185) {
                if (inputs[10] < 0.6475) {
                    var56 = 0.018095413;
                } else {
                    var56 = 0.037554942;
                }
            } else {
                if (inputs[2] < 2.382857) {
                    var56 = -0.021985218;
                } else {
                    if (inputs[2] < 3.2471428) {
                        var56 = 0.023730144;
                    } else {
                        var56 = -0.004907113;
                    }
                }
            }
        }
    } else {
        var56 = -0.02484315;
    }
    double var57;
    if (inputs[16] < -0.32093233) {
        var57 = -0.019485213;
    } else {
        if (inputs[1] < 26.023777) {
            var57 = 0.023220524;
        } else {
            if (inputs[10] < 5.995) {
                if (inputs[9] < 5.2025) {
                    if (inputs[10] < 0.335) {
                        var57 = -0.01069308;
                    } else {
                        var57 = 0.007004272;
                    }
                } else {
                    if (inputs[18] < 1.2435127) {
                        var57 = -0.033262067;
                    } else {
                        var57 = -0.0047138804;
                    }
                }
            } else {
                var57 = 0.024333412;
            }
        }
    }
    double var58;
    if (inputs[23] < 10.910757) {
        if (inputs[16] < 0.12596993) {
            if (inputs[24] < 12.106855) {
                if (inputs[20] < -1.1184866) {
                    var58 = -0.023262503;
                } else {
                    if (inputs[16] < -0.06378947) {
                        var58 = 0.013052111;
                    } else {
                        var58 = -0.009998539;
                    }
                }
            } else {
                if (inputs[10] < 1.155) {
                    var58 = 0.03354796;
                } else {
                    var58 = 0.0066095707;
                }
            }
        } else {
            if (inputs[24] < 10.666371) {
                var58 = 0.019233573;
            } else {
                if (inputs[20] < 0.28234375) {
                    if (inputs[23] < -23.777779) {
                        var58 = 0.012171768;
                    } else {
                        var58 = -0.017473146;
                    }
                } else {
                    var58 = -0.030837832;
                }
            }
        }
    } else {
        var58 = -0.018101975;
    }
    double var59;
    if (inputs[13] < 1850.02) {
        if (inputs[23] < -59.0966) {
            var59 = -0.025906475;
        } else {
            if (inputs[17] < 2.2499475) {
                if (inputs[17] < 1.7898) {
                    if (inputs[3] < 1664.805) {
                        var59 = 0.016605232;
                    } else {
                        var59 = -0.009503421;
                    }
                } else {
                    var59 = 0.02958456;
                }
            } else {
                var59 = -0.026407849;
            }
        }
    } else {
        if (inputs[5] < 1913.09) {
            if (inputs[20] < -0.14515267) {
                var59 = 0.03317167;
            } else {
                var59 = 0.005907651;
            }
        } else {
            if (inputs[9] < 2.93) {
                var59 = 0.02042348;
            } else {
                if (inputs[18] < 1.7450455) {
                    var59 = -0.02449155;
                } else {
                    var59 = 0.004954077;
                }
            }
        }
    }
    double var60;
    if (inputs[23] < -55.599304) {
        var60 = -0.017374665;
    } else {
        if (inputs[18] < 3.397783) {
            if (inputs[10] < 5.865) {
                if (inputs[21] < 3.4954956) {
                    if (inputs[16] < 0.2641203) {
                        var60 = 0.0033628477;
                    } else {
                        var60 = 0.025594654;
                    }
                } else {
                    var60 = -0.013828523;
                }
            } else {
                var60 = 0.027735898;
            }
        } else {
            var60 = -0.016592868;
        }
    }
    double var61;
    if (inputs[11] < 0.23) {
        if (inputs[17] < 1.6396024) {
            var61 = 0.02580056;
        } else {
            var61 = -0.0024279933;
        }
    } else {
        if (inputs[6] < 1931.85) {
            if (inputs[10] < 0.68) {
                if (inputs[17] < 1.0089718) {
                    var61 = -0.0028904038;
                } else {
                    if (inputs[11] < 0.38) {
                        var61 = -0.018460164;
                    } else {
                        var61 = -0.046505023;
                    }
                }
            } else {
                if (inputs[2] < 1.2021428) {
                    if (inputs[21] < 3.1700976) {
                        var61 = 0.02656886;
                    } else {
                        var61 = -0.0036445432;
                    }
                } else {
                    if (inputs[18] < 1.2435127) {
                        var61 = -0.030655194;
                    } else {
                        var61 = -0.0009112059;
                    }
                }
            }
        } else {
            if (inputs[5] < 1959.915) {
                var61 = 0.028208064;
            } else {
                var61 = -0.0060582194;
            }
        }
    }
    double var62;
    if (inputs[17] < 0.87206423) {
        var62 = -0.018558469;
    } else {
        if (inputs[19] < 1.1154667) {
            var62 = 0.023659833;
        } else {
            if (inputs[23] < -35.493023) {
                if (inputs[17] < 1.3103373) {
                    var62 = 0.0012906935;
                } else {
                    var62 = -0.02974796;
                }
            } else {
                if (inputs[19] < 1.6755253) {
                    if (inputs[4] < 1812.825) {
                        var62 = -0.020294992;
                    } else {
                        var62 = 0.00636102;
                    }
                } else {
                    if (inputs[19] < 1.9347545) {
                        var62 = 0.03034216;
                    } else {
                        var62 = 0.0018056486;
                    }
                }
            }
        }
    }
    double var63;
    if (inputs[17] < 2.5590653) {
        if (inputs[11] < 0.21) {
            if (inputs[5] < 1825.695) {
                var63 = 0.03188208;
            } else {
                var63 = 0.002580908;
            }
        } else {
            if (inputs[19] < 2.3010995) {
                if (inputs[16] < -0.041323308) {
                    if (inputs[20] < 0.8231325) {
                        var63 = -0.0026116981;
                    } else {
                        var63 = 0.02579741;
                    }
                } else {
                    if (inputs[20] < -0.8732041) {
                        var63 = 0.01056194;
                    } else {
                        var63 = -0.011760242;
                    }
                }
            } else {
                var63 = -0.026765099;
            }
        }
    } else {
        var63 = -0.017419785;
    }
    double var64;
    if (inputs[23] < -63.260647) {
        var64 = -0.0211424;
    } else {
        if (inputs[6] < 1671.95) {
            if (inputs[20] < -0.4211998) {
                var64 = 0.035805088;
            } else {
                var64 = 0.0067065386;
            }
        } else {
            if (inputs[1] < 32.738472) {
                if (inputs[9] < 4.745) {
                    var64 = -0.032728236;
                } else {
                    if (inputs[14] < -0.816) {
                        var64 = -0.012653129;
                    } else {
                        var64 = 0.021061247;
                    }
                }
            } else {
                if (inputs[8] < 1755.68) {
                    var64 = -0.0111612715;
                } else {
                    if (inputs[14] < -0.742) {
                        var64 = 0.025119618;
                    } else {
                        var64 = 0.0038783017;
                    }
                }
            }
        }
    }
    double var65;
    if (inputs[16] < 0.12944362) {
        if (inputs[10] < 1.185) {
            if (inputs[21] < -2.8800974) {
                var65 = -0.006869345;
            } else {
                if (inputs[2] < 2.0564287) {
                    if (inputs[9] < 2.73) {
                        var65 = 0.0154373385;
                    } else {
                        var65 = 0.040061437;
                    }
                } else {
                    var65 = -0.0023821644;
                }
            }
        } else {
            if (inputs[2] < 1.3678571) {
                if (inputs[13] < 1786.35) {
                    var65 = 0.021910284;
                } else {
                    var65 = -0.0037204532;
                }
            } else {
                if (inputs[3] < 1800.145) {
                    var65 = -0.029251942;
                } else {
                    if (inputs[11] < 0.29) {
                        var65 = -0.017967043;
                    } else {
                        var65 = 0.01299321;
                    }
                }
            }
        }
    } else {
        if (inputs[20] < -0.7405298) {
            if (inputs[16] < 0.22166166) {
                var65 = -0.0029711023;
            } else {
                var65 = 0.021780087;
            }
        } else {
            if (inputs[16] < 0.2694436) {
                if (inputs[3] < 1775.79) {
                    var65 = -0.01727509;
                } else {
                    var65 = -0.040254284;
                }
            } else {
                var65 = -0.002345767;
            }
        }
    }
    double var66;
    if (inputs[15] < -0.71115154) {
        var66 = 0.025340715;
    } else {
        if (inputs[19] < 2.0921564) {
            if (inputs[18] < 1.7450455) {
                if (inputs[2] < 1.7892857) {
                    if (inputs[2] < 1.5521429) {
                        var66 = 0.00064680015;
                    } else {
                        var66 = 0.024162821;
                    }
                } else {
                    var66 = -0.012768228;
                }
            } else {
                if (inputs[18] < 2.0153313) {
                    var66 = 0.030596185;
                } else {
                    var66 = 0.007511889;
                }
            }
        } else {
            if (inputs[15] < 0.39175758) {
                if (inputs[5] < 1837.4675) {
                    var66 = -0.013029833;
                } else {
                    var66 = -0.03702845;
                }
            } else {
                if (inputs[18] < 2.2016084) {
                    var66 = 0.013265847;
                } else {
                    var66 = -0.015959606;
                }
            }
        }
    }
    double var67;
    if (inputs[13] < 1850.37) {
        if (inputs[16] < 0.2694436) {
            if (inputs[13] < 1816.5) {
                if (inputs[2] < 1.1535715) {
                    if (inputs[19] < 1.2444535) {
                        var67 = 0.023848582;
                    } else {
                        var67 = -0.008948347;
                    }
                } else {
                    if (inputs[17] < 1.8681178) {
                        var67 = -0.0154830115;
                    } else {
                        var67 = 0.010742889;
                    }
                }
            } else {
                if (inputs[5] < 1841.055) {
                    var67 = -0.03579162;
                } else {
                    var67 = -0.008584695;
                }
            }
        } else {
            var67 = 0.015836427;
        }
    } else {
        if (inputs[17] < 1.8443145) {
            if (inputs[14] < -0.79) {
                var67 = 0.038101353;
            } else {
                if (inputs[18] < 1.34489) {
                    var67 = -0.019033499;
                } else {
                    if (inputs[11] < 0.28) {
                        var67 = -0.0024750794;
                    } else {
                        var67 = 0.026883373;
                    }
                }
            }
        } else {
            var67 = -0.012001399;
        }
    }
    double var68;
    if (inputs[23] < 10.910757) {
        if (inputs[14] < 1.153) {
            if (inputs[2] < 2.67) {
                if (inputs[2] < 2.2585714) {
                    if (inputs[17] < 1.2666112) {
                        var68 = 0.0062962836;
                    } else {
                        var68 = -0.009186062;
                    }
                } else {
                    var68 = -0.03059672;
                }
            } else {
                if (inputs[2] < 3.0985715) {
                    var68 = 0.03469225;
                } else {
                    var68 = -0.005070974;
                }
            }
        } else {
            var68 = 0.016708378;
        }
    } else {
        if (inputs[1] < 60.9473) {
            var68 = -0.029776659;
        } else {
            var68 = -0.0054413844;
        }
    }
    double var69;
    if (inputs[20] < 0.28234375) {
        if (inputs[9] < 8.15) {
            if (inputs[19] < 1.7106633) {
                if (inputs[19] < 1.4277356) {
                    if (inputs[17] < 1.3543264) {
                        var69 = 0.025471559;
                    } else {
                        var69 = -0.011005335;
                    }
                } else {
                    if (inputs[18] < 1.6264222) {
                        var69 = -0.026635204;
                    } else {
                        var69 = 0.006199201;
                    }
                }
            } else {
                if (inputs[17] < 1.2264322) {
                    var69 = 0.008364995;
                } else {
                    if (inputs[20] < -0.81941295) {
                        var69 = 0.012231903;
                    } else {
                        var69 = 0.04520766;
                    }
                }
            }
        } else {
            var69 = -0.0055892817;
        }
    } else {
        if (inputs[21] < 2.8196435) {
            if (inputs[15] < 0.3398788) {
                if (inputs[20] < 0.84939736) {
                    var69 = -0.019534918;
                } else {
                    if (inputs[21] < -2.6420665) {
                        var69 = 0.020714264;
                    } else {
                        var69 = -0.0065872576;
                    }
                }
            } else {
                var69 = 0.027145252;
            }
        } else {
            var69 = -0.021721512;
        }
    }
    double var70;
    if (inputs[11] < 0.35) {
        if (inputs[20] < -1.499064) {
            var70 = 0.019600794;
        } else {
            if (inputs[18] < 2.0385132) {
                if (inputs[10] < 0.45) {
                    var70 = 0.0076068165;
                } else {
                    if (inputs[2] < 1.6828572) {
                        var70 = -0.010217776;
                    } else {
                        var70 = -0.034480914;
                    }
                }
            } else {
                if (inputs[18] < 3.397783) {
                    if (inputs[18] < 2.4614255) {
                        var70 = 0.00077352824;
                    } else {
                        var70 = 0.028086007;
                    }
                } else {
                    var70 = -0.017555887;
                }
            }
        }
    } else {
        if (inputs[21] < -2.872818) {
            var70 = -0.005198112;
        } else {
            if (inputs[23] < -31.092716) {
                if (inputs[25] < 2.3162615) {
                    var70 = 0.010091411;
                } else {
                    if (inputs[16] < 0.092939846) {
                        var70 = 0.044711966;
                    } else {
                        var70 = 0.0194999;
                    }
                }
            } else {
                if (inputs[23] < -5.150817) {
                    var70 = -0.016299136;
                } else {
                    if (inputs[16] < -0.044586465) {
                        var70 = 0.029418591;
                    } else {
                        var70 = 0.003948797;
                    }
                }
            }
        }
    }
    double var71;
    if (inputs[11] < 0.45) {
        if (inputs[16] < -0.29300752) {
            if (inputs[24] < -21.15462) {
                var71 = -0.0019976704;
            } else {
                var71 = -0.02741015;
            }
        } else {
            if (inputs[10] < 5.0575) {
                if (inputs[9] < 6.4875) {
                    if (inputs[25] < 1.8914771) {
                        var71 = -0.023078999;
                    } else {
                        var71 = 0.006427312;
                    }
                } else {
                    if (inputs[19] < 1.6835228) {
                        var71 = -0.03310584;
                    } else {
                        var71 = 0.005905133;
                    }
                }
            } else {
                var71 = 0.020696372;
            }
        }
    } else {
        var71 = -0.025330268;
    }
    double var72;
    if (inputs[4] < 1664.69) {
        var72 = 0.018042019;
    } else {
        if (inputs[1] < 30.82347) {
            if (inputs[23] < -14.929883) {
                var72 = -0.025223266;
            } else {
                var72 = 0.0012762321;
            }
        } else {
            if (inputs[19] < 2.144363) {
                if (inputs[19] < 1.8027071) {
                    if (inputs[6] < 1933.575) {
                        var72 = -0.0022261697;
                    } else {
                        var72 = 0.022384467;
                    }
                } else {
                    var72 = 0.023640038;
                }
            } else {
                if (inputs[17] < 1.4689125) {
                    var72 = -0.024468472;
                } else {
                    var72 = 0.001610774;
                }
            }
        }
    }
    double var73;
    if (inputs[16] < -0.28039098) {
        if (inputs[15] < -0.67) {
            var73 = -0.00555455;
        } else {
            var73 = -0.03230058;
        }
    } else {
        if (inputs[10] < 5.0575) {
            if (inputs[2] < 1.7892857) {
                if (inputs[8] < 1923.76) {
                    if (inputs[25] < 3.1451292) {
                        var73 = 0.0075610904;
                    } else {
                        var73 = -0.0095389355;
                    }
                } else {
                    var73 = 0.023619732;
                }
            } else {
                if (inputs[1] < 63.875416) {
                    if (inputs[24] < -7.1595545) {
                        var73 = -0.023002742;
                    } else {
                        var73 = 0.007501685;
                    }
                } else {
                    var73 = -0.040999986;
                }
            }
        } else {
            var73 = 0.022095574;
        }
    }
    double var74;
    if (inputs[23] < 10.910757) {
        if (inputs[9] < 2.985) {
            if (inputs[2] < 1.2535714) {
                var74 = -0.0107760085;
            } else {
                if (inputs[11] < 0.39) {
                    var74 = 0.031358883;
                } else {
                    var74 = 0.003762749;
                }
            }
        } else {
            if (inputs[10] < 5.0575) {
                if (inputs[25] < 1.8914771) {
                    var74 = -0.02629402;
                } else {
                    if (inputs[9] < 6.58) {
                        var74 = 0.0047444524;
                    } else {
                        var74 = -0.009780974;
                    }
                }
            } else {
                var74 = 0.015980646;
            }
        }
    } else {
        if (inputs[2] < 1.6328571) {
            var74 = 0.0016888361;
        } else {
            var74 = -0.029897654;
        }
    }
    double var75;
    if (inputs[14] < 0.55) {
        if (inputs[21] < -1.6590085) {
            if (inputs[23] < -2.358174) {
                if (inputs[6] < 1704.27) {
                    var75 = 0.01012699;
                } else {
                    if (inputs[20] < 0.83157694) {
                        var75 = -0.026116064;
                    } else {
                        var75 = 0.0037768125;
                    }
                }
            } else {
                if (inputs[24] < -16.417265) {
                    if (inputs[14] < -0.869) {
                        var75 = 0.009130008;
                    } else {
                        var75 = 0.03198537;
                    }
                } else {
                    var75 = -0.004248338;
                }
            }
        } else {
            var75 = -0.026351174;
        }
    } else {
        if (inputs[14] < 0.707) {
            var75 = 0.021788402;
        } else {
            if (inputs[23] < -23.777779) {
                if (inputs[24] < 20.301311) {
                    var75 = 0.030834185;
                } else {
                    var75 = -0.004632792;
                }
            } else {
                if (inputs[18] < 1.568082) {
                    var75 = -0.030886596;
                } else {
                    if (inputs[8] < 1855.85) {
                        var75 = -0.0107993875;
                    } else {
                        var75 = 0.016785959;
                    }
                }
            }
        }
    }
    double var76;
    if (inputs[13] < 1779.34) {
        if (inputs[20] < 1.2404754) {
            if (inputs[13] < 1652.48) {
                var76 = 0.023605619;
            } else {
                if (inputs[19] < 1.2559031) {
                    var76 = 0.010479663;
                } else {
                    if (inputs[25] < 2.6388013) {
                        var76 = -0.024787936;
                    } else {
                        var76 = -0.0031428884;
                    }
                }
            }
        } else {
            var76 = -0.028431494;
        }
    } else {
        if (inputs[3] < 1974.84) {
            if (inputs[12] < 1942.07) {
                if (inputs[17] < 1.2595555) {
                    if (inputs[20] < 1.0302223) {
                        var76 = 0.009146189;
                    } else {
                        var76 = 0.03636687;
                    }
                } else {
                    if (inputs[17] < 1.394165) {
                        var76 = -0.030666005;
                    } else {
                        var76 = 0.0074548614;
                    }
                }
            } else {
                var76 = 0.029950654;
            }
        } else {
            var76 = -0.017644381;
        }
    }
    double var77;
    if (inputs[15] < -0.71115154) {
        var77 = 0.02420195;
    } else {
        if (inputs[16] < -0.17063157) {
            if (inputs[19] < 1.6515522) {
                var77 = -0.0333039;
            } else {
                if (inputs[19] < 1.9797952) {
                    var77 = 0.021052198;
                } else {
                    var77 = -0.027634226;
                }
            }
        } else {
            if (inputs[24] < -22.04852) {
                var77 = 0.031744253;
            } else {
                if (inputs[24] < -9.013856) {
                    var77 = -0.023264173;
                } else {
                    if (inputs[23] < 5.8796015) {
                        var77 = 0.006016907;
                    } else {
                        var77 = -0.018451307;
                    }
                }
            }
        }
    }
    double var78;
    if (inputs[2] < 0.96428573) {
        var78 = 0.02417476;
    } else {
        if (inputs[18] < 1.2168549) {
            if (inputs[2] < 1.2021428) {
                var78 = 0.011390928;
            } else {
                if (inputs[2] < 1.4471428) {
                    var78 = -0.0437258;
                } else {
                    var78 = -0.0103935255;
                }
            }
        } else {
            if (inputs[21] < -2.872818) {
                if (inputs[10] < 2.3575) {
                    var78 = -0.025037397;
                } else {
                    var78 = 0.017061511;
                }
            } else {
                if (inputs[10] < 1.43) {
                    if (inputs[19] < 1.8905985) {
                        var78 = 0.005737688;
                    } else {
                        var78 = 0.032233696;
                    }
                } else {
                    if (inputs[20] < 0.06041935) {
                        var78 = 0.010129908;
                    } else {
                        var78 = -0.013443435;
                    }
                }
            }
        }
    }
    double var79;
    if (inputs[21] < 3.0345144) {
        if (inputs[21] < 2.765644) {
            if (inputs[16] < 0.054278195) {
                if (inputs[1] < 30.82347) {
                    if (inputs[9] < 4.885) {
                        var79 = -0.027995516;
                    } else {
                        var79 = 0.0049087876;
                    }
                } else {
                    if (inputs[11] < 0.35) {
                        var79 = -0.0016117784;
                    } else {
                        var79 = 0.01860224;
                    }
                }
            } else {
                if (inputs[23] < -16.034887) {
                    var79 = -0.026241692;
                } else {
                    if (inputs[15] < 0.3798788) {
                        var79 = -0.010542515;
                    } else {
                        var79 = 0.014291657;
                    }
                }
            }
        } else {
            var79 = 0.02587943;
        }
