tree
version=v4
num_class=1
num_tree_per_iteration=1
label_index=0
max_feature_idx=24
objective=binary sigmoid:1
feature_names=Column_0 Column_1 Column_2 Column_3 Column_4 Column_5 Column_6 Column_7 Column_8 Column_9 Column_10 Column_11 Column_12 Column_13 Column_14 Column_15 Column_16 Column_17 Column_18 Column_19 Column_20 Column_21 Column_22 Column_23 Column_24
feature_infos=[0:1] [13.66294002532959:83.490921020507812] [0.60928571224212646:7.4021430015563965] [-3.4928946495056152:3.3615951538085938] [-5.6079168319702148:18.768192291259766] [0:1] [-200.54885864257812:79.57305908203125] [-37.801372528076172:35.773288726806641] [1.9734939336776733:3.6253688335418701] [11.547281265258789:82.079238891601562] [0:15.314999580383301] [-1:1] [-65.110000610351562:45.264999389648438] [-52.255001068115234:42.430000305175781] [0.31236726045608521:3.2482864856719971] [-6.1465415954589844:32.269317626953125] [-8.6988687515258789:34.319953918457031] [-11.222299575805664:35.404350280761719] [-65.110000610351562:45.264999389648438] [0:5] [0:23] [0:25.780477523803711] [0:2] [-195.33000183105469:135.79499816894531] [-113.40697479248047:565.091796875]
tree_sizes=957 884 778 1096 884 988 887 887 882 991 991 991 1200 1192 1198 888 886 781 1090 1192 1204 1095 781 1094 1303 1295 783 893 1097 989 781 1308 685 991 1091 1090 1199 682 1204 1194 983 1191 788

Tree=0
num_leaves=8
num_cat=0
split_feature=13 2 21 2 9 17 6
split_gain=6.90713 5.87501 7.93308 9.10686 5.50326 4.93929 3.06811
threshold=-16.315000534057614 1.79107141494751 17.012339591979984 1.0857142806053164 28.840878486633304 1.804916560649872 -3.3245979547500606
decision_type=2 2 2 2 2 2 2
left_child=-1 2 -2 -4 5 -3 -6
right_child=1 4 3 -5 6 -7 -8
leaf_value=-0.45292477460068786 -0.47166379919729651 -0.46655150238565524 -0.46811946134374943 -0.45439648082981154 -0.46802695613699846 -0.47990539563545076 -0.45712452509369766
leaf_weight=14.968148991465567 10.181059718132017 14.414109647274019 13.161102741956709 37.081457063555717 9.0186313092708605 9.0971335470676404 11.897527471184729
leaf_count=60 42 59 54 149 37 38 48
internal_value=-0.4619 -0.463202 -0.460317 -0.457994 -0.467124 -0.47182 -0.461819
internal_weight=119.819 104.851 60.4236 50.2426 44.4274 23.5112 20.9162
internal_count=487 427 245 203 182 97 85
is_linear=0
shrinkage=1


Tree=1
num_leaves=7
num_cat=0
split_feature=13 2 21 2 14 3
split_gain=6.69486 5.70901 7.70857 8.82905 6.80368 4.39977
threshold=-16.315000534057614 1.79107141494751 17.012339591979984 1.0857142806053164 1.0537649393081667 -0.82857629656791676
decision_type=2 2 2 2 2 2
left_child=-1 2 -2 -4 -3 -6
right_child=1 4 3 -5 5 -7
leaf_value=0.010854858032302765 -0.0076084042077219274 -0.01281884336117373 -0.0041037854694702816 0.0094090773623467187 -0.0080676480923851466 0.0032912421132549581
leaf_weight=15.005412697792051 10.16306012868881 10.81896451115608 13.14858230948448 37.16157254576683 9.4341544359922391 24.142244219779968
leaf_count=60 42 45 54 149 39 98
internal_value=0.00203075 0.000747698 0.00358925 0.00587495 -0.00312151 6.73709e-05
internal_weight=119.874 104.869 60.4732 50.3102 44.3954 33.5764
internal_count=487 427 245 203 182 137
is_linear=0
shrinkage=0.0142418


Tree=2
num_leaves=6
num_cat=0
split_feature=20 12 7 1 1
split_gain=5.55075 7.20515 6.00398 5.16392 4.38211
threshold=9.5000000000000018 -14.782500267028807 -23.0638313293457 64.920589447021499 30.720618247985843
decision_type=2 2 2 2 2
left_child=3 -2 -3 -1 -4
right_child=1 2 4 -5 -6
leaf_value=-0.0089748301981520673 0.013382306236419606 0.012515543203773866 -0.0087329664557176685 0.0032922819726809494 0.0019384643082651833
leaf_weight=15.488616168498995 13.080666169524191 9.5178445130586606 8.726958826184271 12.331731379032133 60.779324904084206
leaf_count=64 52 38 36 50 247
internal_value=0.00200063 0.00368308 0.00204432 -0.0035544 0.00057486
internal_weight=119.925 92.1048 79.0241 27.8203 69.5063
internal_count=487 373 321 114 283
is_linear=0
shrinkage=0.0142418


Tree=3
num_leaves=9
num_cat=0
split_feature=13 3 24 6 9 4 15 6
split_gain=8.12136 7.74983 8.35741 11.5613 7.04538 6.71622 5.23363 4.76422
threshold=-16.315000534057614 0.082812324166297926 -34.008403778076165 -19.861991882324215 23.701419830322269 2.4115850925445561 2.5911660194396977 -14.96384286880493
decision_type=2 2 2 2 2 2 2 2
left_child=-1 5 3 -3 -4 7 -7 -2
right_child=1 2 4 -5 -6 6 -8 -9
leaf_value=0.0089835104731555582 -0.009556353744623337 -0.01042636025452875 -0.00071194942007790955 0.010559157866098122 -0.016650729863989442 0.016351891638943787 0.0022965278069754323 0.0015278089589898769
leaf_weight=16.283465266227722 11.600258842110632 9.9120642542839068 8.3311581462621707 10.994719579815863 17.226662278175354 8.5711905956268328 14.040086567401884 23.345560908317566
leaf_count=65 48 41 34 44 72 34 57 95
internal_value=-0.000298646 -0.00176784 -0.00608024 0.000604711 -0.0115064 0.00172354 0.00773254 -0.00218899
internal_weight=120.305 104.022 46.4646 20.9068 25.5578 57.5571 22.6113 34.9458
internal_count=490 425 191 85 106 234 91 143
is_linear=0
shrinkage=0.0142418


Tree=4
num_leaves=7
num_cat=0
split_feature=6 6 4 4 9 8
split_gain=7.95656 6.97526 12.6131 9.37582 5.36026 5.29632
threshold=11.733997821807863 -8.6911759376525861 2.7449133396148686 2.8586847782135014 35.798442840576179 2.538701176643372
decision_type=2 2 2 2 2 2
left_child=1 2 4 5 -1 -3
right_child=-2 3 -4 -5 -6 -7
leaf_value=-0.0030278468825331892 -0.010109099588470678 0.010435908641731525 0.0090104460555137794 -0.0070314886594219847 -0.014268884472626864 -0.0019484597278907783
leaf_weight=27.100458920001984 14.48709626495838 32.749562323093414 13.953381985425947 10.687624827027319 12.500679850578306 8.8127662986516935
leaf_count=111 60 131 56 44 52 36
internal_value=-0.000294522 0.00106783 -0.00253923 0.00476001 -0.00663651 0.00781359
internal_weight=120.292 105.804 53.5545 52.25 39.6011 41.5623
internal_count=490 430 219 211 163 167
is_linear=0
shrinkage=0.0142418


Tree=5
num_leaves=8
num_cat=0
split_feature=13 12 2 9 7 2 14
split_gain=7.89228 11.278 7.34749 9.5432 4.82803 4.48584 6.05598
threshold=-16.315000534057614 0.73500001430511486 1.8185714483261111 27.811526298522953 8.5609655380249041 2.4528571367263798 0.70841687917709362
decision_type=2 2 2 2 2 2 2
left_child=-1 5 3 -3 -4 6 -2
right_child=1 2 4 -5 -6 -7 -8
leaf_value=0.008850080253553173 -0.0018544271318885186 0.015766729520247224 0.0026720466352550911 0.00032745326002174622 -0.010244340867614488 0.0016064626572603856 -0.01357208907327589
leaf_weight=16.311995640397072 14.660072505474089 13.874051302671431 12.054875016212465 19.173997551202774 11.083382442593573 10.067439422011374 23.054595544934273
leaf_count=65 60 55 49 78 46 41 96
internal_value=-0.000290929 -0.00174103 0.00258117 0.00687157 -0.00355387 -0.00681178 -0.00905514
internal_weight=120.28 103.968 56.1863 33.048 23.1383 47.7821 37.7147
internal_count=490 425 228 133 95 197 156
is_linear=0
shrinkage=0.0142418


Tree=6
num_leaves=7
num_cat=0
split_feature=13 8 17 12 8 2
split_gain=8.07038 8.13144 6.48251 4.45553 7.43831 7.22079
threshold=-16.315000534057614 2.5651108026504521 2.5343267917633061 0.82750001549720775 2.5032082796096806 2.3967856168746953
decision_type=2 2 2 2 2 2
left_child=-1 3 -3 5 -5 -2
right_child=1 2 -4 4 -6 -7
leaf_value=0.011627385890740327 -0.0040705423821260417 -0.0010561611668933278 -0.016903322254247607 0.0024629123977433706 0.016075992678568102 0.010470878168775278
leaf_weight=15.410016134381292 30.382186725735664 14.163801744580271 8.1124367713928205 33.30708646774292 10.598854780197142 8.7294162660837156
leaf_count=61 125 58 34 135 42 35
internal_value=0.00207901 0.000659875 -0.00693806 0.00271182 0.00581399 -0.000783882
internal_weight=120.704 105.294 22.2762 83.0175 43.9059 39.1116
internal_count=490 429 92 337 177 160
is_linear=0
shrinkage=0.0142418


Tree=7
num_leaves=7
num_cat=0
split_feature=13 8 17 10 1 17
split_gain=7.82267 7.92669 5.78582 5.03438 7.54882 5.99595
threshold=-16.315000534057614 2.5545176267623906 2.5343267917633061 2.2662500143051152 66.608577728271499 -0.29469928145408625
decision_type=2 2 2 2 2 2
left_child=-1 3 -3 5 -5 -2
right_child=1 2 -4 4 -6 -7
leaf_value=0.011437446694140185 -0.0042150800305643752 -0.0010877058642951693 -0.015548443772536604 0.014363361108724524 -0.002488587955396093 0.004880688412818115
leaf_weight=15.446269541978834 28.010720044374466 14.894647046923639 8.8169188946485502 14.830312401056291 8.3086543977260572 30.443811789155006
leaf_count=61 115 61 37 59 34 123
internal_value=0.00204897 0.000650516 -0.00655993 0.00275813 0.00834637 0.000522651
internal_weight=120.751 105.305 23.7116 81.5935 23.139 58.4545
internal_count=490 429 98 331 93 238
is_linear=0
shrinkage=0.0142418


Tree=8
num_leaves=7
num_cat=0
split_feature=8 17 21 4 24 17
split_gain=6.33982 6.14597 5.42485 5.79109 8.74025 4.07196
threshold=2.5651108026504521 2.5343267917633061 22.352442741394047 -2.8774545192718501 -29.91686916351318 -4.906177043914794
decision_type=2 2 2 2 2 2
left_child=2 -2 3 5 -5 -1
right_child=1 -3 -4 4 -6 -7
leaf_value=0.0022422567827436136 0.00090054662846539995 -0.013745998884066831 0.014344900637278729 0.013681636746764326 0.0016930607615490056 -0.011066074294459218
leaf_weight=9.1330568194389361 16.193642243742946 8.817491948604582 8.5839260965585691 15.883084356784819 53.013948425650597 9.1723765879869443
leaf_count=37 66 37 34 63 215 38
internal_value=0.0020191 -0.00433913 0.00368557 0.00260225 0.00449219 -0.00447934
internal_weight=120.798 25.0111 95.7864 87.2025 68.897 18.3054
internal_count=490 103 387 353 278 75
is_linear=0
shrinkage=0.0142418


Tree=9
num_leaves=8
num_cat=0
split_feature=10 10 17 21 1 16 14
split_gain=7.76533 9.43381 8.61287 7.64972 8.01389 6.8964 6.11217
threshold=2.2662500143051152 1.8449999690055849 1.7423171997070315 19.265709877014164 31.433434486389164 -3.1284379959106441 0.73322468996047985
decision_type=2 2 2 2 2 2 2
left_child=1 3 5 6 -5 -2 -1
right_child=2 -3 -4 4 -6 -7 -8
leaf_value=0.0032358593289486372 0.0040731977632691352 -0.015337635042841212 -0.0015972037220244504 -0.0047238568766517939 0.0088838393161242493 0.020169186931827836 -0.0093757422039656962
leaf_weight=12.338301122188566 10.702823385596274 8.380611300468443 15.170672520995138 12.679056286811827 27.484553799033165 10.970127567648889 20.524369806051254
leaf_count=50 43 35 62 52 110 43 85
internal_value=0.00122427 -0.00123296 0.00662825 0.000427642 0.00458572 0.0123434 -0.00465086
internal_weight=118.251 81.4069 36.8436 73.0263 40.1636 21.673 32.8627
internal_count=480 332 148 297 162 86 135
is_linear=0
shrinkage=0.0142418


Tree=10
num_leaves=8
num_cat=0
split_feature=10 10 17 3 17 13 1
split_gain=7.54065 9.20744 8.34401 7.97365 8.95227 6.85566 3.86316
threshold=2.2662500143051152 1.8449999690055849 1.7423171997070315 1.0000000180025095e-35 -1.8153805732727049 -4.069999933242797 33.658805847167976
decision_type=2 2 2 2 2 2 2
left_child=1 3 6 4 -1 -5 -2
right_child=2 -3 -4 5 -6 -7 -8
leaf_value=-0.0055605565762208943 0.0052865975047947334 -0.015177757242568177 -0.0015753552201808519 0.0026116459083493594 0.009925265560958043 -0.0095662450833509556 0.017485905993126789
leaf_weight=10.692907512187956 9.7161315232515353 8.3508492261171323 15.165163561701773 16.801115691661835 24.761073678731918 20.774608269333839 12.011855900287626
leaf_count=44 39 35 62 68 99 86 47
internal_value=0.0012066 -0.0012166 0.00652689 0.000421351 0.00524916 -0.00413796 0.0121403
internal_weight=118.274 81.3806 36.8932 73.0297 35.454 37.5757 21.728
internal_count=480 332 148 297 143 154 86
is_linear=0
shrinkage=0.0142418


Tree=11
num_leaves=8
num_cat=0
split_feature=10 10 17 3 8 17 16
split_gain=7.32304 8.98715 8.08504 7.74749 10.2455 8.68447 6.53031
threshold=2.2662500143051152 1.8449999690055849 1.7423171997070315 1.0000000180025095e-35 2.5010969638824467 -1.8153805732727049 -3.1284379959106441
decision_type=2 2 2 2 2 2 2
left_child=1 3 6 5 -5 -1 -2
right_child=2 -3 -4 4 -6 -7 -8
leaf_value=-0.0054899097453165995 0.0038968307693951864 -0.015020624104605577 -0.001553800038328711 0.0024484829754381275 -0.012480277437423297 0.0097642425946435178 0.019520436617764803
leaf_weight=10.679242372512816 10.728813573718069 8.320592448115347 15.159713774919508 21.203248009085655 16.336266577243805 24.814258918166161 11.05110138654709
leaf_count=44 43 35 62 86 68 99 43
internal_value=0.00118917 -0.0012005 0.00642755 0.000415114 -0.00408362 0.00516895 0.0119422
internal_weight=118.293 81.3536 36.9396 73.033 37.5395 35.4935 21.7799
internal_count=480 332 148 297 154 143 86
is_linear=0
shrinkage=0.0142418


Tree=12
num_leaves=10
num_cat=0
split_feature=20 9 6 9 2 20 23 17 19
split_gain=9.14496 8.17305 6.3994 5.41189 5.07905 4.75299 3.64712 2.71212 2.06715
threshold=16.500000000000004 30.606001853942875 -30.954617500305172 44.591342926025398 1.7953571081161501 12.500000000000002 19.117499351501468 -2.9091744422912593 2.5000000000000004
decision_type=2 2 2 2 2 2 2 2 2
left_child=1 4 -3 -4 5 -1 7 -2 -6
right_child=6 2 3 -5 8 -7 -8 -9 -10
leaf_value=0.011306469427596975 0.010019641975498495 -0.01396609872711636 -0.0065679691101592115 0.006344736073105867 0.0020000200167332501 -0.00073102016584353907 0.015240012833757342 0.00077155748889527352 -0.0073555621491566804
leaf_weight=18.329042196273807 11.552129611372948 12.223730832338331 16.980884552001957 10.449220478534697 9.8540487587451953 10.332452237606047 9.5941088795661909 14.262615621089935 8.9631384909152967
leaf_count=73 46 51 70 42 40 42 38 58 37
internal_value=0.0017456 -0.000738302 -0.00549497 -0.00163746 0.00324158 0.00699493 0.00782412 0.00496065 -0.00249039
internal_weight=122.541 87.1325 39.6538 27.4301 47.4787 28.6615 35.4089 25.8147 18.8172
internal_count=497 355 163 112 192 115 142 104 77
is_linear=0
shrinkage=0.0142418


Tree=13
num_leaves=10
num_cat=0
split_feature=20 9 6 9 2 10 15 20 10
split_gain=8.8756 7.9505 6.25242 5.26381 4.9295 4.63654 6.8902 4.60314 2.05954
threshold=16.500000000000004 30.606001853942875 -30.954617500305172 44.591342926025398 1.7953571081161501 2.9974999427795415 2.0727539062500004 12.500000000000002 1.6524999737739565
decision_type=2 2 2 2 2 2 2 2 2
left_child=1 4 -3 -4 7 6 -2 -1 -6
right_child=5 2 3 -5 8 -7 -8 -9 -10
leaf_value=0.01112081789992541 -0.0014798305209088815 -0.01381530349992448 -0.0064853831900193188 0.0062477854826219741 0.0027627622093839344 0.015461905604078958 0.013964882215283235 -0.00072094331629127283 -0.0066211725903238807
leaf_weight=18.373049691319469 15.708827614784242 12.18389508128166 16.955239459872249 10.463612273335455 8.378396078944208 10.673445478081701 9.0842159092426282 10.330804556608198 10.428050845861433
leaf_count=73 64 51 70 42 34 42 36 42 43
internal_value=0.00172053 -0.000728394 -0.00542494 -0.00161489 0.00319355 0.00770242 0.00425347 0.00688626 -0.00245725
internal_weight=122.58 87.113 39.6027 27.4189 47.5103 35.4665 24.793 28.7039 18.8064
internal_count=497 355 163 112 192 142 100 115 77
is_linear=0
shrinkage=0.0142418


Tree=14
num_leaves=10
num_cat=0
split_feature=20 9 6 9 2 20 1 17 19
split_gain=8.61522 7.73442 6.10928 5.11987 4.78443 4.45867 3.05881 3.45746 2.00845
threshold=16.500000000000004 30.606001853942875 -30.954617500305172 44.591342926025398 1.7953571081161501 12.500000000000002 63.321823120117195 -2.9091744422912593 2.5000000000000004
decision_type=2 2 2 2 2 2 2 2 2
left_child=1 4 -3 -4 5 -1 7 -2 -6
right_child=6 2 3 -5 8 -7 -8 -9 -10
leaf_value=0.010939285735100706 0.0097936375395907532 -0.0136668913484472 -0.0064038436360872976 0.006152554803929869 0.0019986523370540297 -0.00071100380504018955 0.01315775441669143 -0.0012073738520758607 -0.0072284002965816814
leaf_weight=18.415341615676883 11.584954336285589 12.143518939614294 16.929616421461109 10.477607160806654 9.8542282879352587 10.329177200794218 12.644705116748808 11.291434317827227 8.9416364282369596
leaf_count=73 46 51 70 42 40 42 50 46 37
internal_value=0.00169597 -0.00071859 -0.00535595 -0.00159265 0.00314643 0.00677968 0.00758344 0.00440463 -0.00242429
internal_weight=122.612 87.0911 39.5507 27.4072 47.5404 28.7445 35.5211 22.8764 18.7959
internal_count=497 355 163 112 192 115 142 92 77
is_linear=0
shrinkage=0.0142418


Tree=15
num_leaves=7
num_cat=0
split_feature=21 1 13 1 17 14
split_gain=9.79286 7.17968 6.18553 5.51931 5.17749 3.18818
threshold=22.904791831970218 31.066404342651371 -16.315000534057614 35.378437042236335 -5.3490731716155997 0.80038741230964672
decision_type=2 2 2 2 2 2
left_child=1 4 -3 -4 -1 -6
right_child=-2 2 3 -5 5 -7
leaf_value=0.0021405941717247095 0.015275099824085781 0.012799815005234378 0.0099880604386673611 -0.00043807773247235229 -0.016761390356940183 -0.0041911683368806418
leaf_weight=10.37251713871956 9.9180625975131971 10.485773324966429 12.041692599654196 64.107625901699066 8.2810321003198641 8.2718888372182828
leaf_count=42 39 41 48 261 35 34
internal_value=0.00186616 0.000667314 0.00266419 0.00123508 -0.0057268 -0.0106195
internal_weight=123.479 113.561 86.6351 76.1493 26.9254 16.5529
internal_count=500 461 350 309 111 69
is_linear=0
shrinkage=0.0142418


Tree=16
num_leaves=7
num_cat=0
split_feature=21 1 17 17 2 6
split_gain=9.48883 6.98644 5.41652 5.05203 3.99442 2.78868
threshold=22.904791831970218 31.066404342651371 -2.9926824569702144 -5.3490731716155997 1.79107141494751 -14.262310981750487
decision_type=2 2 2 2 2 2
left_child=1 3 -3 -1 -4 -5
right_child=-2 2 4 5 -6 -7
leaf_value=0.0021097805189764533 0.015017491996164575 0.010689064425408139 0.0041037721995358101 -0.016428095626621175 -0.0025756875267864028 -0.0046266866639736561
leaf_weight=10.377364099025728 9.9481426924467069 13.925497606396673 39.521501839160919 8.0154407322406787 33.230995982885361 8.4948474168777448
leaf_count=42 39 55 159 34 136 35
internal_value=0.00183945 0.000657805 0.00262572 -0.00565549 0.00105427 -0.0104992
internal_weight=123.514 113.566 86.678 26.8877 72.7525 16.5103
internal_count=500 461 350 111 295 69
is_linear=0
shrinkage=0.0142418


Tree=17
num_leaves=6
num_cat=0
split_feature=21 1 13 1 1
split_gain=9.19629 6.79796 5.9363 5.29067 4.99489
threshold=22.904791831970218 31.066404342651371 -16.315000534057614 35.378437042236335 26.672214508056644
decision_type=2 2 2 2 2
left_child=1 4 -3 -4 -1
right_child=-2 2 3 -5 -6
leaf_value=0.0011377578155029986 0.014766543704821984 0.012499347116489555 0.0097408072405120415 -0.00045344767124392963 -0.011135764314828722
leaf_weight=12.222804039716722 9.9767148047685605 10.520025745034216 12.080161660909651 64.121262982487679 14.626585572957991
leaf_count=50 39 41 48 261 61
internal_value=0.00181289 0.00064815 0.00258744 0.00118644 -0.00558521
internal_weight=123.548 113.571 86.7215 76.2014 26.8494
internal_count=500 461 350 309 111
is_linear=0
shrinkage=0.0142418


Tree=18
num_leaves=9
num_cat=0
split_feature=2 14 3 3 8 8 4 8
split_gain=6.81599 5.27816 4.87835 4.79757 8.10843 5.93687 4.63384 2.00468
threshold=1.79107141494751 1.0537649393081667 0.43165443837642675 -0.88483941555023182 2.458493828773499 2.5030516386032109 2.8586847782135014 2.5004160404205327
decision_type=2 2 2 2 2 2 2 2
left_child=3 -2 7 5 -5 -1 -6 -3
right_child=1 2 -4 4 6 -7 -8 -9
leaf_value=0.0010472737990030612 -0.010863883524132537 -0.0013977212843047028 0.0055684071019680859 0.010516792015198647 0.00070282627916308949 0.016334442348650169 -0.010868388087684897 -0.010031822830318541
leaf_weight=9.4433897137641925 12.966353476047514 14.959628626704218 15.981934428215025 14.093914479017256 29.787549406290054 11.203475818037985 8.9504164010286313 8.4409936070442182
leaf_count=38 54 61 64 56 121 44 37 35
internal_value=0.000853148 -0.00306629 -0.000452105 0.00364633 0.00135631 0.00942869 -0.0020178 -0.00457774
internal_weight=125.828 52.3489 39.3826 73.4787 52.8319 20.6469 38.738 23.4006
internal_count=510 214 160 296 214 82 158 96
is_linear=0
shrinkage=0.0142418


Tree=19
num_leaves=10
num_cat=0
split_feature=2 9 14 8 16 3 9 3 8
split_gain=6.62529 5.61171 5.14835 5.12742 5.3103 4.74261 5.56188 4.14023 4.44954
threshold=1.79107141494751 33.309186935424812 1.0537649393081667 2.4574408531188969 -2.3275976181030269 0.43165443837642675 28.840878486633304 0.20591398328542712 2.5030516386032109
decision_type=2 2 2 2 2 2 2 2 2
left_child=1 3 -2 -1 -5 6 -4 8 -3
right_child=2 7 5 4 -6 -7 -8 -9 -10
leaf_value=0.01438589215631002 -0.010739154554767366 -0.0038150675901480078 -0.012222047032015885 -0.0051224623145748206 0.0078690372161541768 0.0054839891183916115 0.0016614188761520626 -0.0068121242184495156 0.010006109213748846
leaf_weight=12.978042021393774 12.932980969548224 8.8103805184364337 10.30855153501034 9.3319088667631167 19.143566370010376 16.000151604413986 13.068012326955794 13.524772375822065 9.7413726150989515
leaf_count=51 54 36 43 38 76 64 53 56 39
internal_value=0.00084084 0.00359256 -0.00302598 0.0070392 0.00360475 -0.000446258 -0.00451875 -0.000879569 0.00347509
internal_weight=125.84 73.53 52.3097 41.4535 28.4755 39.3767 23.3766 32.0765 18.5518
internal_count=510 296 214 165 114 160 96 131 75
is_linear=0
shrinkage=0.0142418


Tree=20
num_leaves=10
num_cat=0
split_feature=2 9 14 8 16 10 10 9 14
split_gain=6.44012 5.44467 5.02185 4.96153 5.15628 3.66038 2.71262 4.25455 2.58347
threshold=1.79107141494751 33.309186935424812 1.0537649393081667 2.4574408531188969 -2.3275976181030269 2.0162500143051152 2.8825000524520878 24.875535964965824 0.67881712317466747
decision_type=2 2 2 2 2 2 2 2 2
left_child=1 3 -2 -1 -5 8 7 -4 -3
right_child=2 5 6 4 -6 -7 -8 -9 -10
leaf_value=0.014145658732378497 -0.010616124746764401 0.00063899565361723537 -0.010302967267440913 -0.0050565002285951986 0.0077464573599133803 0.0069071343281247918 0.0049932719653674722 0.0013493681976651372 -0.0087919779623147863
leaf_weight=13.014016717672346 12.899373069405554 12.468180760741236 9.8819193243980425 9.3219989836215991 19.172870591282845 8.7028189748525602 12.478496417403219 17.008916735649109 10.897468566894529
leaf_count=51 54 51 41 38 76 35 50 69 45
internal_value=0.000828727 0.00353972 -0.00298629 0.00693091 0.00355125 -0.000867406 -0.000440478 -0.00298238 -0.0038012
internal_weight=125.846 73.5774 52.2687 41.5089 28.4949 32.0685 39.3693 26.8908 23.3656
internal_count=510 296 214 165 114 131 160 110 96
is_linear=0
shrinkage=0.0142418


Tree=21
num_leaves=9
num_cat=0
split_feature=21 18 21 3 2 14 3 20
split_gain=5.55965 8.57887 8.14559 5.95969 5.0935 9.24335 5.07711 3.74995
threshold=19.265709877014164 -13.195000171661375 18.779054641723636 0.15745969116687777 1.2635714411735537 0.94660070538520824 0.7459586262702943 13.500000000000002
decision_type=2 2 2 2 2 2 2 2
left_child=2 -2 3 7 -3 -6 -5 -1
right_child=1 4 -4 6 5 -7 -8 -9
leaf_value=0.010126368735342062 -0.0061139793516651591 -0.00027436998875639859 -0.013871950855439344 -0.013403053596675501 0.019783195053978301 0.0047191343948128298 0.00057740521697453959 0.00036088642278627511
leaf_weight=14.296150371432303 11.558094322681425 12.798522636294363 8.6409813314676267 8.3652588129043597 12.803603351116179 23.135747477412224 13.583528518676756 17.733991742134094
leaf_count=57 47 52 36 35 50 93 55 72
internal_value=0.00175207 0.00483073 -0.00121898 0.000855448 0.00744233 0.010175 -0.00483245 0.00475959
internal_weight=122.916 60.296 62.6199 53.9789 48.7379 35.9394 21.9488 32.0301
internal_count=497 242 255 219 195 143 90 129
is_linear=0
shrinkage=0.0142418


Tree=22
num_leaves=6
num_cat=0
split_feature=6 1 6 9 8
split_gain=5.25894 4.8446 6.63241 3.66801 2.20957
threshold=11.733997821807863 31.066404342651371 -14.96384286880493 20.777277946472172 2.6191867589950566
decision_type=2 2 2 2 2
left_child=1 2 -1 -3 -5
right_child=-2 3 -4 4 -6
leaf_value=-0.010037014079014292 -0.0059704994808999785 -0.002346510360249117 0.0046919722688893448 0.0067936435838898889 -0.00055625072500799775
leaf_weight=12.223532631993294 15.507968738675116 13.274085789918898 12.162626594305038 60.205800607800484 9.5787539482116681
leaf_count=51 64 54 49 240 39
internal_value=0.00172652 0.00284757 -0.00271506 0.00448368 0.00578623
internal_weight=122.953 107.445 24.3862 83.0586 69.7846
internal_count=497 433 100 333 279
is_linear=0
shrinkage=0.0142418


Tree=23
num_leaves=9
num_cat=0
split_feature=21 18 21 3 3 2 14 16
split_gain=5.38706 8.25958 7.95871 5.74887 4.94216 4.91995 8.94626 4.43155
threshold=19.265709877014164 -13.195000171661375 18.779054641723636 0.15745969116687777 0.7459586262702943 1.2635714411735537 0.94660070538520824 3.2360217571258549
decision_type=2 2 2 2 2 2 2 2
left_child=2 -2 3 7 -5 -3 -7 -1
right_child=1 5 -4 4 -6 6 -8 -9
leaf_value=0.00082877576594089352 -0.0060225438890886907 -0.0002996365643773111 -0.013749866851818823 -0.013245890132710296 0.00056188050285457336 0.019393357403009317 0.0045982984507997419 0.011948663977890395
leaf_weight=21.210836097598076 11.539028540253637 12.80194480717182 8.6183854639530164 8.3357352316379565 13.585165068507193 12.858309537172316 23.172945365309715 10.864868357777594
leaf_count=86 47 52 36 35 55 50 93 43
internal_value=0.0017012 0.00472881 -0.00122441 0.000823298 -0.00476955 0.00728519 0.0099653 0.00465208
internal_weight=122.987 60.3722 62.615 53.9966 21.9209 48.8332 36.0313 32.0757
internal_count=497 242 255 219 90 195 143 129
is_linear=0
shrinkage=0.0142418


Tree=24
num_leaves=11
num_cat=0
split_feature=2 2 21 15 2 3 18 21 2 21
split_gain=8.25956 8.98579 4.52709 11.8712 5.93068 8.28964 5.07835 3.86873 2.78054 2.11241
threshold=1.79107141494751 2.7307143211364751 18.37686920166016 -1.7252002358436582 1.2635714411735537 1.0000000180025095e-35 -0.87499999999999989 19.544207572937015 3.450714230537415 17.978671073913578
decision_type=2 2 2 2 2 2 2 2 2 2
left_child=2 7 3 -1 6 -6 -4 9 -3 -2
right_child=1 8 4 -5 5 -7 -8 -9 -10 -11
leaf_value=-0.012885679680593698 -0.0072194026358601828 0.0099862851261374973 0.0083217750557847206 0.0080665789720889575 0.020150342098544355 0.0041086434218454478 -0.0049407225823607298 -0.0014681043540766062 -0.00093905089338913966 -0.016929917380131682
leaf_weight=9.3515974432230013 11.04653921723366 9.7483008652925509 11.228961035609247 12.617274731397627 11.888465523719789 14.506004452705382 11.772024512290953 12.934512257575987 8.9121571034193021 8.3086857050657255
leaf_count=39 46 39 45 50 46 58 48 53 36 35
internal_value=0.00136032 -0.00301194 0.00448153 -0.00089229 0.00686481 0.0114428 0.00155177 -0.00753959 0.00481912 -0.0115338
internal_weight=122.315 50.9502 71.3643 21.9689 49.3955 26.3945 23.001 32.2897 18.6605 19.3552
internal_count=495 209 286 89 197 104 93 134 75 81
is_linear=0
shrinkage=0.0142418


Tree=25
num_leaves=11
num_cat=0
split_feature=2 2 21 4 2 3 17 21 2 21
split_gain=8.02701 8.74956 4.39305 10.6961 5.74545 8.0095 4.58888 3.78073 2.69571 2.07224
threshold=1.79107141494751 2.7307143211364751 18.37686920166016 -1.9626780748367307 1.2635714411735537 1.0000000180025095e-35 -2.7636715173721309 19.544207572937015 3.450714230537415 17.978671073913578
decision_type=2 2 2 2 2 2 2 2 2 2
left_child=2 7 3 -1 6 -6 -4 9 -3 -2
right_child=1 8 4 -5 5 -7 -8 -9 -10 -11
leaf_value=-0.011778397194986252 -0.0071311254095278416 0.0098263567627520226 0.0093539032677054327 0.0080058081261951963 0.019798296008448586 0.0040477643614289932 -0.0035497978122215482 -0.0014480340526842753 -0.00092617797925683483 -0.01676241629588025
leaf_weight=9.8312756419181841 11.02692870795727 9.7693568617105502 8.982869043946268 12.128933936357496 11.931206554174425 14.51775987446308 14.025839015841482 12.93016044795513 8.9104640334844571 8.2746791541576368
leaf_count=41 46 39 36 48 46 58 57 53 36 35
internal_value=0.0013408 -0.00297245 0.00441526 -0.000880783 0.00676018 0.0112594 0.00152955 -0.00744816 0.00474707 -0.011405
internal_weight=122.329 50.9116 71.4179 21.9602 49.4577 26.449 23.0087 32.2318 18.6798 19.3016
internal_count=495 209 286 89 197 104 93 134 75 81
is_linear=0
shrinkage=0.0142418


Tree=26
num_leaves=6
num_cat=0
split_feature=1 13 12 8 7
split_gain=5.77777 8.37996 7.69909 8.01173 7.24318
threshold=31.066404342651371 -16.315000534057614 -8.2550001144409162 2.5545176267623906 -20.505037307739254
decision_type=2 2 2 2 2
left_child=4 -2 -3 -4 -1
right_child=1 2 3 -5 -6
leaf_value=0.0022724637082396863 0.015140168871843688 -0.0097795135855770401 0.0059483592264891931 -0.0048162449183264417 -0.011961058216721762
leaf_weight=15.786640122532846 10.110333576798437 10.43025393784046 54.214294657111168 18.701222479343414 13.096938505768774
leaf_count=64 39 43 217 77 55
internal_value=0.00132169 0.00304163 0.00153737 0.00318118 -0.00422393
internal_weight=122.34 93.4561 83.3458 72.9155 28.8836
internal_count=495 376 337 294 119
is_linear=0
shrinkage=0.0142418


Tree=27
num_leaves=7
num_cat=0
split_feature=13 21 20 21 21 18
split_gain=6.60016 3.22317 5.90623 6.8975 5.27071 6.60024
threshold=-16.315000534057614 19.303286552429203 16.500000000000004 20.807863235473636 18.748162269592289 -3.7125000953674312
decision_type=2 2 2 2 2 2
left_child=-1 4 3 -3 5 -2
right_child=1 2 -4 -5 -6 -7
leaf_value=0.0086466711994260086 -0.010025470861257643 0.0034787554003360092 0.0094921959020958357 -0.0090769460983918856 -0.012807906806961297 0.0022032370950880709
leaf_weight=16.872973293066025 12.211766406893728 23.068236142396927 13.920210048556326 14.119259521365164 9.5269481241703016 31.7628513276577
leaf_count=66 51 93 55 58 40 129
internal_value=0.000442364 -0.000896591 0.00165773 -0.00131416 -0.00333337 -0.00122626
internal_weight=121.482 104.609 51.1077 37.1875 53.5016 43.9746
internal_count=492 426 206 151 220 180
is_linear=0
shrinkage=0.0142418


Tree=28
num_leaves=9
num_cat=0
split_feature=8 10 23 8 7 16 10 17
split_gain=4.84881 4.85543 5.86623 5.90163 5.85706 7.44714 4.91395 3.02872
threshold=2.6232912540435795 2.2662500143051152 1.6274999976158144 2.5030516386032109 10.438856124877931 -3.6425391435623165 1.4012500047683718 1.7214611768722536
decision_type=2 2 2 2 2 2 2 2
left_child=1 2 6 -4 5 -3 -1 -2
right_child=7 4 3 -5 -6 -7 -8 -9
leaf_value=-0.00076579162656933834 -0.0006228751505505944 0.00015331641239513881 -0.00080856089271591329 0.011715298701431157 -0.0018260863693409474 0.017366681251467314 -0.011497802546800138 -0.012808846517103293
leaf_weight=27.508674949407578 8.303173169493677 8.451411619782446 19.782931044697765 12.174165233969687 12.123219817876814 12.638830170035364 12.425242334604262 8.0684050768613798
leaf_count=112 34 34 80 48 49 49 52 34
internal_value=0.000435789 0.00156237 -0.000521451 0.00401076 0.00604611 0.0105429 -0.00415049 -0.00672027
internal_weight=121.476 105.104 71.891 31.9571 33.2135 21.0902 39.9339 16.3716
internal_count=492 424 292 128 132 83 164 68
is_linear=0
shrinkage=0.0142418


Tree=29
num_leaves=8
num_cat=0
split_feature=13 2 9 1 1 12 20
split_gain=6.35215 3.20681 8.20956 6.5685 5.8447 5.01992 4.00155
threshold=-16.315000534057614 1.770357131958008 29.534231185913089 63.958692550659187 59.462976455688484 6.6450002193450937 15.500000000000002
decision_type=2 2 2 2 2 2 2
left_child=-1 2 5 4 -3 -2 -4
right_child=1 3 6 -5 -6 -7 -8
leaf_value=0.008470558519738559 0.012410182327729309 -0.003940738061073929 -0.00639942027423365 -0.012134872182206645 0.0097609023399341816 -0.00015430979947635016 0.0044951888084321604
leaf_weight=16.900735706090927 15.296288549900057 22.971668556332592 24.396890580654144 13.136577874422072 8.4529216736555082 11.026429131627081 9.2849349379539472
leaf_count=66 60 95 101 55 34 44 37
internal_value=0.00042954 -0.000885434 0.00126282 -0.00377004 -0.000212147 0.00719008 -0.0033863
internal_weight=121.466 104.566 60.0045 44.5612 31.4246 26.3227 33.6818
internal_count=492 426 242 184 129 104 138
is_linear=0
shrinkage=0.0142418


Tree=30
num_leaves=6
num_cat=0
split_feature=6 9 9 3 14
split_gain=4.78525 4.09531 4.02346 7.75413 6.4115
threshold=11.733997821807863 20.216945648193363 36.758867263793952 0.28806866705417639 1.2653018832206728
decision_type=2 2 2 2 2
left_child=1 -1 4 -4 -3
right_child=-2 2 3 -5 -6
leaf_value=-0.0076686137437386509 -0.0082186889508898044 0.0054789924668981671 0.0027287142340367697 -0.011642524484950777 -0.005867110280170151
leaf_weight=11.920254647731779 15.880275845527647 50.02026441693306 18.874087110161785 12.468614250421522 12.447819128632544
leaf_count=49 66 200 76 52 51
internal_value=-0.0009866 0.000114695 0.0011196 -0.00303041 0.00320521
internal_weight=121.611 105.731 93.8108 31.3427 62.4681
internal_count=494 428 379 128 251
is_linear=0
shrinkage=0.0142418


Tree=31
num_leaves=11
num_cat=0
split_feature=3 21 23 6 7 4 6 7 13 7
split_gain=4.68337 9.23778 6.35914 6.32026 6.26104 4.67957 8.72333 3.39503 5.38891 2.37355
threshold=0.082812324166297926 19.480184555053714 7.6150000095367441 -1.0241224467754362 10.799741744995119 2.3784651756286626 -3.3245979547500606 10.799741744995119 -4.0099999904632559 -12.197975635528563
decision_type=2 2 2 2 2 2 2 2 2 2
left_child=2 4 7 -4 9 6 -3 8 -1 -2
right_child=1 5 3 -5 -6 -7 -8 -9 -10 -11
leaf_value=-0.0070209675795215891 -0.0094317571031307182 -0.0026713467045041944 0.01637145658827328 0.0014448588163437702 -0.018959177802370639 -0.0065829730760130767 0.016389851220049826 -0.0082528221351619996 0.0060060948602459118 -0.00036292751973916184
leaf_weight=10.301620230078699 11.710233777761458 10.536993131041529 9.5066886991262454 14.196522980928419 8.9401154071092588 8.3205200135707837 8.74652047455311 11.409935861825941 16.380589485168457 11.525443956255915
leaf_count=42 49 43 37 57 38 34 34 47 66 47
internal_value=-0.000973568 -0.00380869 0.00177294 0.00752867 -0.00896817 0.00222906 0.00606322 -0.00183169 0.000959961 -0.0049798
internal_weight=121.575 59.7798 61.7954 23.7032 32.1758 27.604 19.2835 38.0921 26.6822 23.2357
internal_count=494 245 249 94 134 111 77 155 108 96
is_linear=0
shrinkage=0.0142418


Tree=32
num_leaves=5
num_cat=0
split_feature=6 13 7 1
split_gain=4.61944 3.44597 4.96061 5.69707
threshold=11.733997821807863 -16.315000534057614 -22.568940162658688 31.433434486389164
decision_type=2 2 2 2
left_child=1 -1 -3 -4
right_child=-2 2 3 -5
leaf_value=0.0062571025523724981 -0.0080779194532836461 0.0074896868086601421 -0.011486692936734306 -0.00066493348539430498
leaf_weight=15.57266081869602 15.832963749766348 11.997030958533285 11.36095194518566 66.765889495611191
leaf_count=61 66 48 48 271
internal_value=-0.000960546 0.000120432 -0.000952811 -0.00226693
internal_weight=121.529 105.697 90.1239 78.1268
internal_count=494 428 367 319
is_linear=0
shrinkage=0.0142418


Tree=33
num_leaves=8
num_cat=0
split_feature=2 21 15 6 10 8 4
split_gain=6.25887 6.4966 6.96716 8.46702 4.73391 4.32937 1.81417
threshold=1.8185714483261111 17.761834144592289 2.7824846506118779 -27.255751609802243 2.9500000476837163 2.4106496572494511 1.6478278636932375
decision_type=2 2 2 2 2 2 2
left_child=1 -1 3 -3 5 -2 -7
right_child=4 2 -4 -5 -6 6 -8
leaf_value=-0.0056005148800479538 0.0013592332810380575 -0.0013594668606607017 -0.0052335306583796174 0.01193379536451938 0.0023099291168463738 -0.0071742037186199982 -0.015340468711122728
leaf_weight=15.648690760135649 8.9952881485223752 14.751860558986662 11.052779987454413 28.021975323557854 15.610060870647429 16.664549499750141 8.7423791736364347
leaf_count=64 37 60 45 110 63 69 37
internal_value=-0.000340749 0.00242198 0.00476785 0.007366 -0.00417232 -0.00710957 -0.0100936
internal_weight=119.488 69.4753 53.8266 42.7738 50.0123 34.4022 25.4069
internal_count=485 279 215 170 206 143 106
is_linear=0
shrinkage=0.0142418


Tree=34
num_leaves=9
num_cat=0
split_feature=3 18 6 21 8 8 8 9
split_gain=4.10702 9.14661 6.9252 6.87224 5.23808 6.36103 4.39552 1.65772
threshold=0.097549848258495345 2.4424999952316289 -23.46083831787109 18.521586418151859 2.6047300100326543 2.5030516386032109 2.455832958221436 27.811526298522953
decision_type=2 2 2 2 2 2 2 2
left_child=4 2 -2 -4 5 6 -1 -3
right_child=1 7 3 -5 -6 -7 -8 -9
leaf_value=0.0055939434776718245 -0.007018347528950925 -0.0066894069239519984 -0.0036485168680561132 0.011312127016962195 -0.0071850291576088035 0.011181932814375026 -0.0044049392372516073 -0.015718730736362679
leaf_weight=17.491813659667969 14.684590727090834 8.3272365927696246 10.413607627153398 14.95538045465946 9.8911507278680784 16.745518118143082 17.734389901161194 9.2181217670440656
leaf_count=70 61 34 43 59 41 66 72 39
internal_value=-0.000336574 -0.00306717 0.000701778 0.0051928 0.00220771 0.00401847 0.000564047 -0.0115716
internal_weight=119.462 57.5989 40.0536 25.369 61.8629 51.9717 35.2262 17.5454
internal_count=485 236 163 102 249 208 142 73
is_linear=0
shrinkage=0.0142418


Tree=35
num_leaves=9
num_cat=0
split_feature=2 21 2 14 18 21 21 3
split_gain=6.06626 5.96258 6.28568 5.69 4.35702 3.27747 3.63778 2.78744
threshold=1.79107141494751 17.761834144592289 1.5321428179740908 1.2100421786308291 9.1050000190734881 18.696997642517093 20.137540817260746 -0.021146907471120354
decision_type=2 2 2 2 2 2 2 2
left_child=1 -1 4 7 -3 -5 -7 -2
right_child=3 2 -4 5 -6 6 -8 -9
leaf_value=-0.0052881206358216439 -0.0037638612756633791 0.0045064943147395606 0.013552791766407512 0.0044404350005169037 -0.0065847750964684142 -0.0113628022480394 0.001576780585549438 -0.014876868552088219
leaf_weight=15.402289509773253 8.194162994623186 31.268115371465683 12.289346396923063 15.087184533476828 9.094973146915434 8.1563198268413561 9.1941602528095228 10.747425839304922
leaf_count=63 34 125 48 61 37 34 37 46
internal_value=-0.000332412 0.00245336 0.00473076 -0.00401696 0.00198477 -0.00037918 -0.00457328 -0.0101695
internal_weight=119.434 68.0547 52.6524 51.3793 40.3631 32.4377 17.3505 18.9416
internal_count=485 273 210 212 162 132 71 80
is_linear=0
shrinkage=0.0142418


Tree=36
num_leaves=10
num_cat=0
split_feature=8 7 13 18 14 7 6 7 21
split_gain=5.4321 4.66196 5.66531 5.6885 3.65207 8.2318 5.50843 4.52334 4.47432
threshold=2.4574408531188969 -21.318923950195309 -5.3374998569488517 1.5425000190734866 0.69270780682563793 -12.197975635528563 -1.4265584945678709 -18.739397048950192 17.189618110656742
decision_type=2 2 2 2 2 2 2 2 2
left_child=1 -1 -3 -4 6 7 -2 -6 -7
right_child=4 2 3 -5 5 8 -8 -9 -10
leaf_value=0.01375646496012011 -0.0043484426021297802 0.0093507377907842623 -0.011660660803567726 0.0039307715158796545 -0.0045560199740617901 -0.0072932748086819953 0.008844887454963769 -0.019062236761444307 0.0026207030765394439
leaf_weight=8.6259488165378553 11.638538107275965 12.593819066882135 8.1968982368707675 10.693268060684202 9.0623164325952548 12.809874340891836 13.811643481254576 8.5248617529869062 31.4449542760849
leaf_count=34 48 50 34 43 37 53 55 36 127
internal_value=0.000295668 0.00461941 0.00203659 -0.00289206 -0.00169778 -0.00356304 0.00282618 -0.0117387 -0.000271235
internal_weight=127.402 40.1099 31.484 18.8902 87.2922 61.842 25.4502 17.5872 44.2548
internal_count=517 161 127 77 356 253 103 73 180
is_linear=0
shrinkage=0.0142418


Tree=37
num_leaves=5
num_cat=0
split_feature=18 13 7 17
split_gain=4.91592 10.888 6.78044 6.83444
threshold=-20.727499961853024 -16.315000534057614 -23.0638313293457 4.8212125301361093
decision_type=2 2 2 2
left_child=-1 -2 -3 -4
right_child=1 2 3 -5
leaf_value=-0.0093837522382351126 0.015452612631452438 0.0090443736557872176 -0.0034744010853314843 0.0061090441145679056
leaf_weight=9.6101893931627256 9.599891245365141 13.777120739221571 75.790730506181717 18.618452370166779
leaf_count=39 37 55 312 74
internal_value=0.000291147 0.00109683 -0.000206311 -0.00157447
internal_weight=127.396 117.786 108.186 94.4092
internal_count=517 478 441 386
is_linear=0
shrinkage=0.0142418


Tree=38
num_leaves=10
num_cat=0
split_feature=8 7 13 18 1 17 3 2 18
split_gain=5.25745 4.44163 5.48776 5.51416 3.747 6.03045 3.05075 8.38538 3.79211
threshold=2.4574408531188969 -21.318923950195309 -5.3374998569488517 1.5425000190734866 30.720618247985843 -5.3163685798645011 0.10626509785652162 1.770357131958008 1.0000000180025095e-35
decision_type=2 2 2 2 2 2 2 2 2
left_child=1 -1 -3 -4 5 -2 7 -6 -8
right_child=4 2 3 -5 6 -7 8 -9 -10
leaf_value=0.013437463897299259 0.00079739343154685009 0.0092029120031559605 -0.011497718869197452 0.003864064172955164 0.0072610128316976229 -0.016274309115866546 0.0013631190157342436 -0.0057543962468825718 -0.00889922573879935
leaf_weight=8.6579018235206586 8.369151249527933 12.614161074161531 8.1700367480516451 10.702039524912832 25.624019086360931 8.1545782983303052 14.481434106826784 16.210182964801788 14.404889374971388
leaf_count=34 34 50 34 43 101 35 59 67 60
internal_value=0.000287403 0.00453834 0.00201371 -0.00284314 -0.00167521 -0.00773254 -0.000239988 0.00221393 -0.00378354
internal_weight=127.388 40.1441 31.4862 18.8721 87.2443 16.5237 70.7205 41.8342 28.8863
internal_count=517 161 127 77 356 69 287 168 119
is_linear=0
shrinkage=0.0142418


Tree=39
num_leaves=10
num_cat=0
split_feature=20 2 9 20 2 1 17 23 1
split_gain=4.6446 4.49651 6.81009 7.89032 6.4288 6.00542 7.27368 4.21858 9.62305
threshold=16.500000000000004 1.79107141494751 29.534231185913089 13.500000000000002 1.3003571033477785 63.958692550659187 -1.9480865597724912 16.482500076293949 35.757593154907234
decision_type=2 2 2 2 2 2 2 2 2
left_child=1 2 3 -1 -4 6 -3 8 -2
right_child=7 5 4 -5 -6 -7 -8 -9 -10
leaf_value=0.013001687507527046 0.012214689295211382 -0.0084841967075590299 -0.0076076389373108321 -0.0026848883817448673 0.0049521910298466311 -0.014709912615026065 0.0081759399857290922 0.014428045414412725 -0.0057174417620950418
leaf_weight=17.43730036914349 11.479603320360185 10.982041105628015 19.241094559431076 10.190168082714079 14.165309339761732 8.4219142943620664 9.888526603579523 8.744409114122389 12.411476269364355
leaf_count=68 45 46 80 41 57 36 40 34 51
internal_value=0.00150483 -0.000162712 0.00203795 0.00724075 -0.00228438 -0.00472869 -0.000587586 0.00608981 0.00293231
internal_weight=122.962 90.3264 61.0339 27.6275 33.4064 29.2925 20.8706 32.6355 23.8911
internal_count=498 368 246 109 137 122 86 130 96
is_linear=0
shrinkage=0.0142418


Tree=40
num_leaves=8
num_cat=0
split_feature=10 2 8 8 7 7 8
split_gain=7.3279 3.87511 3.79318 7.79016 4.62546 3.84572 3.02182
threshold=3.2749999761581425 2.2010713815689091 2.455832958221436 2.4899228811264043 -10.839210510253904 -12.627426147460936 2.3781251907348637
decision_type=2 2 2 2 2 2 2
left_child=2 -2 5 -4 -5 -1 -7
right_child=1 -3 3 4 -6 6 -8
leaf_value=0.010765106563479678 0.015205073673866514 0.0024434356360446383 -0.013320284942642329 -0.0049577832208221395 0.0029901333437634412 -0.0053163184117936031 0.0059696195055146256
leaf_weight=11.137785226106645 10.54050597548485 8.9314143657684308 9.983457148075102 23.19508770108223 40.374509230256081 9.5082748085260409 9.2947110831737501
leaf_count=44 41 36 42 96 163 39 37
internal_value=0.00148357 0.00944586 -3.16586e-05 -0.00177124 8.2899e-05 0.00422325 0.000267155
internal_weight=122.966 19.4719 103.494 73.5531 63.5696 29.9408 18.803
internal_count=498 77 421 301 259 120 76
is_linear=0
shrinkage=0.0142418


Tree=41
num_leaves=10
num_cat=0
split_feature=20 2 9 20 3 1 17 1 1
split_gain=4.49291 4.36301 6.55466 7.66369 7.3477 5.85337 7.03777 3.34199 10.6035
threshold=16.500000000000004 1.79107141494751 29.534231185913089 13.500000000000002 -0.82857629656791676 63.958692550659187 -1.9480865597724912 35.530038833618171 62.937717437744148
decision_type=2 2 2 2 2 2 2 2 2
left_child=1 2 3 -1 -4 6 -3 -2 -9
right_child=7 5 4 -5 -6 -7 -8 8 -10
leaf_value=0.012752138295664328 0.01228482296661409 -0.0083826944715733303 0.0085478739895639092 -0.0026995391700959104 -0.0063278056981453633 -0.014559473504667715 0.0080036298001146464 -0.0091007993261504414 0.010927119589208337
leaf_weight=17.480132877826694 10.997842714190481 10.956620216369631 9.0684523284435254 10.190711349248884 24.313960582017899 8.3874119073152524 9.9127063453197497 8.926055848598482 12.749961689114569
leaf_count=68 43 46 36 41 101 36 40 37 50
internal_value=0.0014625 -0.000178504 0.00198783 0.00708555 -0.00225675 -0.00468 -0.000597028 0.00596855 0.00267102
internal_weight=122.984 90.31 61.0533 27.6708 33.3824 29.2567 20.8693 32.6739 21.676
internal_count=498 368 246 109 137 122 86 130 87
is_linear=0
shrinkage=0.0142418


Tree=42
num_leaves=6
num_cat=0
split_feature=21 8 18 24 2
split_gain=4.5305 5.57727 4.79768 4.83452 2.80316
threshold=22.904791831970218 2.6232912540435795 15.277499675750734 -47.437007904052727 1.8185714483261111
decision_type=2 2 2 2 2
left_child=1 2 3 -1 -3
right_child=-2 4 -4 -5 -6
leaf_value=-0.0040462760486078084 0.0096022890158397843 -0.0027434216884917912 -0.0093838322019429207 0.0034346711859239635 -0.01428250320154829
leaf_weight=23.401435881853104 9.0020005106925947 9.2126926779747027 8.7878594398498517 67.729982286691666 7.9565446823835364
leaf_count=96 35 38 36 273 34
internal_value=-7.09349e-06 -0.000762798 0.000531638 0.00150845 -0.00820586
internal_weight=126.091 117.089 99.9193 91.1314 17.1692
internal_count=512 477 405 369 72
is_linear=0
shrinkage=0.0142418


end of trees

feature_importances:
Column_2=34
Column_21=28
Column_8=26
Column_1=23
Column_17=22
Column_9=21
Column_3=20
Column_6=18
Column_13=17
Column_7=15
Column_10=15
Column_20=14
Column_14=13
Column_18=11
Column_4=8
Column_16=6
Column_12=5
Column_15=4
Column_23=4
Column_24=3
Column_19=2

parameters:
[boosting: gbdt]
[objective: binary]
[metric: binary_logloss]
[tree_learner: serial]
[device_type: cpu]
[data_sample_strategy: bagging]
[data: ]
[valid: ]
[num_iterations: 5000]
[learning_rate: 0.0142418]
[num_leaves: 38]
[num_threads: 4]
[seed: 42]
[deterministic: 0]
[force_col_wise: 0]
[force_row_wise: 0]
[histogram_pool_size: -1]
[max_depth: 4]
[min_data_in_leaf: 34]
[min_sum_hessian_in_leaf: 0.001]
[bagging_fraction: 0.776275]
[pos_bagging_fraction: 1]
[neg_bagging_fraction: 1]
[bagging_freq: 3]
[bagging_seed: 400]
[bagging_by_query: 0]
[feature_fraction: 0.804792]
[feature_fraction_bynode: 1]
[feature_fraction_seed: 30056]
[extra_trees: 0]
[extra_seed: 12879]
[early_stopping_round: 0]
[early_stopping_min_delta: 0]
[first_metric_only: 0]
[max_delta_step: 0]
[lambda_l1: 3.88584e-07]
[lambda_l2: 0.223886]
[linear_lambda: 0]
[min_gain_to_split: 0]
[drop_rate: 0.1]
[max_drop: 50]
[skip_drop: 0.5]
[xgboost_dart_mode: 0]
[uniform_drop: 0]
[drop_seed: 17869]
[top_rate: 0.2]
[other_rate: 0.1]
[min_data_per_group: 100]
[max_cat_threshold: 32]
[cat_l2: 10]
[cat_smooth: 10]
[max_cat_to_onehot: 4]
[top_k: 20]
[monotone_constraints: ]
[monotone_constraints_method: basic]
[monotone_penalty: 0]
[feature_contri: ]
[forcedsplits_filename: ]
[refit_decay_rate: 0.9]
[cegb_tradeoff: 1]
[cegb_penalty_split: 0]
[cegb_penalty_feature_lazy: ]
[cegb_penalty_feature_coupled: ]
[path_smooth: 0]
[interaction_constraints: ]
[verbosity: -1]
[saved_feature_importance_type: 0]
[use_quantized_grad: 0]
[num_grad_quant_bins: 4]
[quant_train_renew_leaf: 0]
[stochastic_rounding: 1]
[linear_tree: 0]
[max_bin: 255]
[max_bin_by_feature: ]
[min_data_in_bin: 3]
[bin_construct_sample_cnt: 200000]
[data_random_seed: 175]
[is_enable_sparse: 1]
[enable_bundle: 1]
[use_missing: 1]
[zero_as_missing: 0]
[feature_pre_filter: 1]
[pre_partition: 0]
[two_round: 0]
[header: 0]
[label_column: ]
[weight_column: ]
[group_column: ]
[ignore_column: ]
[categorical_feature: ]
[forcedbins_filename: ]
[precise_float_parser: 0]
[parser_config_file: ]
[objective_seed: 16083]
[num_class: 1]
[is_unbalance: 0]
[scale_pos_weight: 1.09554]
[sigmoid: 1]
[boost_from_average: 1]
[reg_sqrt: 0]
[alpha: 0.9]
[fair_c: 1]
[poisson_max_delta_step: 0.7]
[tweedie_variance_power: 1.5]
[lambdarank_truncation_level: 30]
[lambdarank_norm: 1]
[label_gain: ]
[lambdarank_position_bias_regularization: 0]
[eval_at: ]
[multi_error_top_k: 1]
[auc_mu_weights: ]
[num_machines: 1]
[local_listen_port: 12400]
[time_out: 120]
[machine_list_filename: ]
[machines: ]
[gpu_platform_id: -1]
[gpu_device_id: -1]
[gpu_use_dp: 0]
[num_gpu: 1]

end of parameters

pandas_categorical:null
